<?xml version="1.0"?>
<MethodSetup Method="BDT::BDTCShape_EB">
  <GeneralInfo>
    <Info name="TMVA Release" value="4.2.0 [262656]"/>
    <Info name="ROOT Release" value="5.34/18 [336402]"/>
    <Info name="Creator" value="musella"/>
    <Info name="Date" value="Fri Mar 20 18:28:56 2015"/>
    <Info name="Host" value="Linux cmsdev02.cern.ch 2.6.32-431.23.3.el6.x86_64 #1 SMP Wed Jul 30 09:43:11 CEST 2014 x86_64 x86_64 x86_64 GNU/Linux"/>
    <Info name="Dir" value="/afs/cern.ch/work/m/musella/private/Analysis/EXO_7_2_2_patch2/src/diphotons/CategoryOptimizer/macro/photonId"/>
    <Info name="Training events" value="811035"/>
    <Info name="TrainingTime" value="4.28922067e+02"/>
    <Info name="AnalysisType" value="Classification"/>
  </GeneralInfo>
  <Options>
    <Option name="V" modified="Yes">False</Option>
    <Option name="VerbosityLevel" modified="No">Default</Option>
    <Option name="VarTransform" modified="No">None</Option>
    <Option name="H" modified="Yes">False</Option>
    <Option name="CreateMVAPdfs" modified="Yes">False</Option>
    <Option name="IgnoreNegWeightsInTraining" modified="No">False</Option>
    <Option name="NTrees" modified="Yes">400</Option>
    <Option name="MaxDepth" modified="Yes">3</Option>
    <Option name="MinNodeSize" modified="Yes">1</Option>
    <Option name="nCuts" modified="Yes">2000</Option>
    <Option name="BoostType" modified="Yes">AdaBoost</Option>
    <Option name="AdaBoostR2Loss" modified="No">quadratic</Option>
    <Option name="UseBaggedBoost" modified="No">False</Option>
    <Option name="Shrinkage" modified="Yes">1.000000e+00</Option>
    <Option name="AdaBoostBeta" modified="No">5.000000e-01</Option>
    <Option name="UseRandomisedTrees" modified="No">False</Option>
    <Option name="UseNvars" modified="No">3</Option>
    <Option name="UsePoissonNvars" modified="No">True</Option>
    <Option name="BaggedSampleFraction" modified="No">6.000000e-01</Option>
    <Option name="UseYesNoLeaf" modified="No">True</Option>
    <Option name="NegWeightTreatment" modified="No">inverseboostnegweights</Option>
    <Option name="Css" modified="No">1.000000e+00</Option>
    <Option name="Cts_sb" modified="No">1.000000e+00</Option>
    <Option name="Ctb_ss" modified="No">1.000000e+00</Option>
    <Option name="Cbb" modified="No">1.000000e+00</Option>
    <Option name="NodePurityLimit" modified="No">5.000000e-01</Option>
    <Option name="SeparationType" modified="Yes">giniindex</Option>
    <Option name="DoBoostMonitor" modified="No">False</Option>
    <Option name="UseFisherCuts" modified="No">False</Option>
    <Option name="MinLinCorrForFisher" modified="No">8.000000e-01</Option>
    <Option name="UseExclusiveVars" modified="No">False</Option>
    <Option name="DoPreselection" modified="No">False</Option>
    <Option name="SigToBkgFraction" modified="No">1.000000e+00</Option>
    <Option name="PruneMethod" modified="Yes">nopruning</Option>
    <Option name="PruneStrength" modified="No">0.000000e+00</Option>
    <Option name="PruningValFraction" modified="No">5.000000e-01</Option>
    <Option name="nEventsMin" modified="No">0</Option>
    <Option name="UseBaggedGrad" modified="No">False</Option>
    <Option name="GradBaggingFraction" modified="No">6.000000e-01</Option>
    <Option name="UseNTrainEvents" modified="No">0</Option>
    <Option name="NNodesMax" modified="No">0</Option>
  </Options>
  <Variables NVar="10">
    <Variable VarIndex="0" Expression="full5x5_sigmaIetaIeta" Label="full5x5_sigmaIetaIeta" Title="full5x5_sigmaIetaIeta" Unit="" Internal="full5x5_sigmaIetaIeta" Type="F" Min="2.96729384e-04" Max="2.60581747e-02"/>
    <Variable VarIndex="1" Expression="etaWidth" Label="etaWidth" Title="etaWidth" Unit="" Internal="etaWidth" Type="F" Min="2.92929844e-03" Max="3.00210029e-01"/>
    <Variable VarIndex="2" Expression="phiWidth" Label="phiWidth" Title="phiWidth" Unit="" Internal="phiWidth" Type="F" Min="4.52239998e-03" Max="6.19881272e-01"/>
    <Variable VarIndex="3" Expression="covarianceIetaIphi" Label="covarianceIetaIphi" Title="covarianceIetaIphi" Unit="" Internal="covarianceIetaIphi" Type="F" Min="-4.44878329e-04" Max="4.39938594e-04"/>
    <Variable VarIndex="4" Expression="r9" Label="r9" Title="r9" Unit="" Internal="r9" Type="F" Min="1.69537842e-01" Max="9.86137986e-01"/>
    <Variable VarIndex="5" Expression="scEta" Label="scEta" Title="scEta" Unit="" Internal="scEta" Type="F" Min="-1.44419551e+00" Max="1.44419754e+00"/>
    <Variable VarIndex="6" Expression="pt" Label="pt" Title="pt" Unit="" Internal="pt" Type="F" Min="2.00000122e+02" Max="2.44897974e+03"/>
    <Variable VarIndex="7" Expression="s4" Label="s4" Title="s4" Unit="" Internal="s4" Type="F" Min="2.28975058e-01" Max="9.72248912e-01"/>
    <Variable VarIndex="8" Expression="hadronicOverEm" Label="hadronicOverEm" Title="hadronicOverEm" Unit="" Internal="hadronicOverEm" Type="F" Min="0.00000000e+00" Max="4.70137310e+00"/>
    <Variable VarIndex="9" Expression="rho" Label="rho" Title="rho" Unit="" Internal="rho" Type="F" Min="7.90992796e-01" Max="3.08672276e+01"/>
  </Variables>
  <Spectators NSpec="0"/>
  <Classes NClass="2">
    <Class Name="Signal" Index="0"/>
    <Class Name="Background" Index="1"/>
  </Classes>
  <Transformations NTransformations="0"/>
  <MVAPdfs/>
  <Weights NTrees="400" AnalysisType="0">
    <BinaryTree type="DecisionTree" boostWeight="1.2647357253042033e+00" itree="0">
      <Node pos="s" depth="0" NCoef="0" IVar="4" Cut="9.1635358333587646e-01" cType="0" res="-9.9000000000000000e+01" rms="0.0000000000000000e+00" purity="5.0000000000000000e-01" nType="0">
        <Node pos="l" depth="1" NCoef="0" IVar="8" Cut="5.0505790859460831e-02" cType="1" res="-9.9000000000000000e+01" rms="0.0000000000000000e+00" purity="9.0203565359115601e-01" nType="0">
          <Node pos="l" depth="2" NCoef="0" IVar="-1" Cut="8.7087184190750122e-01" cType="0" res="-9.9000000000000000e+01" rms="0.0000000000000000e+00" purity="9.3817383050918579e-01" nType="1"/>
          <Node pos="r" depth="2" NCoef="0" IVar="-1" Cut="8.7901705503463745e-01" cType="0" res="-9.9000000000000000e+01" rms="0.0000000000000000e+00" purity="2.0558838546276093e-01" nType="-1"/>
        </Node>
        <Node pos="r" depth="1" NCoef="0" IVar="8" Cut="1.1747558601200581e-02" cType="1" res="-9.9000000000000000e+01" rms="0.0000000000000000e+00" purity="1.0648239403963089e-01" nType="0">
          <Node pos="l" depth="2" NCoef="0" IVar="0" Cut="9.1150663793087006e-03" cType="1" res="-9.9000000000000000e+01" rms="0.0000000000000000e+00" purity="4.8719549179077148e-01" nType="0">
            <Node pos="l" depth="3" NCoef="0" IVar="-1" Cut="0.0000000000000000e+00" cType="1" res="-9.9000000000000000e+01" rms="0.0000000000000000e+00" purity="5.9458702802658081e-01" nType="1"/>
            <Node pos="r" depth="3" NCoef="0" IVar="-1" Cut="0.0000000000000000e+00" cType="1" res="-9.9000000000000000e+01" rms="0.0000000000000000e+00" purity="1.7316904664039612e-01" nType="-1"/>
          </Node>
          <Node pos="r" depth="2" NCoef="0" IVar="-1" Cut="9.1272285208106041e-03" cType="1" res="-9.9000000000000000e+01" rms="0.0000000000000000e+00" purity="1.2670272029936314e-02" nType="-1"/>
        </Node>
      </Node>
    </BinaryTree>
    <BinaryTree type="DecisionTree" boostWeight="9.0481769254723221e-01" itree="1">
      <Node pos="s" depth="0" NCoef="0" IVar="7" Cut="8.7084275484085083e-01" cType="0" res="-9.9000000000000000e+01" rms="0.0000000000000000e+00" purity="4.5216786861419678e-01" nType="0">
        <Node pos="l" depth="1" NCoef="0" IVar="4" Cut="9.3847781419754028e-01" cType="0" res="-9.9000000000000000e+01" rms="0.0000000000000000e+00" purity="8.2197397947311401e-01" nType="0">
          <Node pos="l" depth="2" NCoef="0" IVar="-1" Cut="8.8934057950973511e-01" cType="0" res="-9.9000000000000000e+01" rms="0.0000000000000000e+00" purity="9.1493874788284302e-01" nType="1"/>
          <Node pos="r" depth="2" NCoef="0" IVar="2" Cut="1.9547186791896820e-02" cType="1" res="-9.9000000000000000e+01" rms="0.0000000000000000e+00" purity="5.0896883010864258e-01" nType="0">
            <Node pos="l" depth="3" NCoef="0" IVar="-1" Cut="0.0000000000000000e+00" cType="1" res="-9.9000000000000000e+01" rms="0.0000000000000000e+00" purity="6.1066031455993652e-01" nType="1"/>
            <Node pos="r" depth="3" NCoef="0" IVar="-1" Cut="0.0000000000000000e+00" cType="1" res="-9.9000000000000000e+01" rms="0.0000000000000000e+00" purity="4.1140180826187134e-01" nType="-1"/>
          </Node>
        </Node>
        <Node pos="r" depth="1" NCoef="0" IVar="-1" Cut="9.5684472471475601e-03" cType="1" res="-9.9000000000000000e+01" rms="0.0000000000000000e+00" purity="1.2601031363010406e-01" nType="-1"/>
      </Node>
    </BinaryTree>
    <BinaryTree type="DecisionTree" boostWeight="6.1445703033685406e-01" itree="2">
      <Node pos="s" depth="0" NCoef="0" IVar="8" Cut="3.0543653294444084e-02" cType="1" res="-9.9000000000000000e+01" rms="0.0000000000000000e+00" purity="4.8371440172195435e-01" nType="0">
        <Node pos="l" depth="1" NCoef="0" IVar="4" Cut="9.4635081291198730e-01" cType="0" res="-9.9000000000000000e+01" rms="0.0000000000000000e+00" purity="6.6929990053176880e-01" nType="0">
          <Node pos="l" depth="2" NCoef="0" IVar="-1" Cut="8.8945353031158447e-01" cType="0" res="-9.9000000000000000e+01" rms="0.0000000000000000e+00" purity="8.5976600646972656e-01" nType="1"/>
          <Node pos="r" depth="2" NCoef="0" IVar="0" Cut="1.0192957706749439e-02" cType="1" res="-9.9000000000000000e+01" rms="0.0000000000000000e+00" purity="5.3630334138870239e-01" nType="0">
            <Node pos="l" depth="3" NCoef="0" IVar="-1" Cut="0.0000000000000000e+00" cType="1" res="-9.9000000000000000e+01" rms="0.0000000000000000e+00" purity="5.6978774070739746e-01" nType="1"/>
            <Node pos="r" depth="3" NCoef="0" IVar="-1" Cut="0.0000000000000000e+00" cType="1" res="-9.9000000000000000e+01" rms="0.0000000000000000e+00" purity="1.2686303257942200e-01" nType="-1"/>
          </Node>
        </Node>
        <Node pos="r" depth="1" NCoef="0" IVar="7" Cut="8.9312982559204102e-01" cType="0" res="-9.9000000000000000e+01" rms="0.0000000000000000e+00" purity="9.8652079701423645e-02" nType="0">
          <Node pos="l" depth="2" NCoef="0" IVar="-1" Cut="0.0000000000000000e+00" cType="1" res="-9.9000000000000000e+01" rms="0.0000000000000000e+00" purity="6.5465486049652100e-01" nType="1"/>
          <Node pos="r" depth="2" NCoef="0" IVar="-1" Cut="9.4760907813906670e-03" cType="1" res="-9.9000000000000000e+01" rms="0.0000000000000000e+00" purity="6.0586035251617432e-02" nType="-1"/>
        </Node>
      </Node>
    </BinaryTree>
    <BinaryTree type="DecisionTree" boostWeight="4.7611082502643509e-01" itree="3">
      <Node pos="s" depth="0" NCoef="0" IVar="7" Cut="8.2626861333847046e-01" cType="0" res="-9.9000000000000000e+01" rms="0.0000000000000000e+00" purity="4.2160382866859436e-01" nType="0">
        <Node pos="l" depth="1" NCoef="0" IVar="4" Cut="9.4688838720321655e-01" cType="0" res="-9.9000000000000000e+01" rms="0.0000000000000000e+00" purity="5.7368826866149902e-01" nType="0">
          <Node pos="l" depth="2" NCoef="0" IVar="-1" Cut="8.8931030035018921e-01" cType="0" res="-9.9000000000000000e+01" rms="0.0000000000000000e+00" purity="7.7276778221130371e-01" nType="1"/>
          <Node pos="r" depth="2" NCoef="0" IVar="-1" Cut="1.6416922211647034e-01" cType="1" res="-9.9000000000000000e+01" rms="0.0000000000000000e+00" purity="4.4071435928344727e-01" nType="-1"/>
        </Node>
        <Node pos="r" depth="1" NCoef="0" IVar="-1" Cut="9.4151739031076431e-03" cType="1" res="-9.9000000000000000e+01" rms="0.0000000000000000e+00" purity="1.3244765996932983e-01" nType="-1"/>
      </Node>
    </BinaryTree>
    <BinaryTree type="DecisionTree" boostWeight="4.0247769595188310e-01" itree="4">
      <Node pos="s" depth="0" NCoef="0" IVar="0" Cut="1.0248552076518536e-02" cType="1" res="-9.9000000000000000e+01" rms="0.0000000000000000e+00" purity="4.7447037696838379e-01" nType="0">
        <Node pos="l" depth="1" NCoef="0" IVar="4" Cut="8.6958295106887817e-01" cType="0" res="-9.9000000000000000e+01" rms="0.0000000000000000e+00" purity="5.7427078485488892e-01" nType="0">
          <Node pos="l" depth="2" NCoef="0" IVar="-1" Cut="9.0648448467254639e-01" cType="0" res="-9.9000000000000000e+01" rms="0.0000000000000000e+00" purity="6.2486302852630615e-01" nType="1"/>
          <Node pos="r" depth="2" NCoef="0" IVar="-1" Cut="5.8547250926494598e-02" cType="1" res="-9.9000000000000000e+01" rms="0.0000000000000000e+00" purity="3.2055526971817017e-01" nType="-1"/>
        </Node>
        <Node pos="r" depth="1" NCoef="0" IVar="-1" Cut="8.6846929788589478e-01" cType="0" res="-9.9000000000000000e+01" rms="0.0000000000000000e+00" purity="8.7686173617839813e-02" nType="-1"/>
      </Node>
    </BinaryTree>
    <BinaryTree type="DecisionTree" boostWeight="2.5245709165048985e-01" itree="5">
      <Node pos="s" depth="0" NCoef="0" IVar="0" Cut="1.0724900290369987e-02" cType="1" res="-9.9000000000000000e+01" rms="0.0000000000000000e+00" purity="4.3740683794021606e-01" nType="0">
        <Node pos="l" depth="1" NCoef="0" IVar="7" Cut="9.0602606534957886e-01" cType="0" res="-9.9000000000000000e+01" rms="0.0000000000000000e+00" purity="5.0389587879180908e-01" nType="0">
          <Node pos="l" depth="2" NCoef="0" IVar="-1" Cut="1.1721232905983925e-02" cType="1" res="-9.9000000000000000e+01" rms="0.0000000000000000e+00" purity="6.6993886232376099e-01" nType="1"/>
          <Node pos="r" depth="2" NCoef="0" IVar="-1" Cut="1.3032947480678558e-01" cType="1" res="-9.9000000000000000e+01" rms="0.0000000000000000e+00" purity="4.5867231488227844e-01" nType="-1"/>
        </Node>
        <Node pos="r" depth="1" NCoef="0" IVar="-1" Cut="3.5242676734924316e-02" cType="1" res="-9.9000000000000000e+01" rms="0.0000000000000000e+00" purity="9.1636091470718384e-02" nType="-1"/>
      </Node>
    </BinaryTree>
    <BinaryTree type="DecisionTree" boostWeight="2.4197413816233831e-01" itree="6">
      <Node pos="s" depth="0" NCoef="0" IVar="0" Cut="1.0724900290369987e-02" cType="1" res="-9.9000000000000000e+01" rms="0.0000000000000000e+00" purity="4.7692885994911194e-01" nType="0">
        <Node pos="l" depth="1" NCoef="0" IVar="8" Cut="1.3605824112892151e-01" cType="1" res="-9.9000000000000000e+01" rms="0.0000000000000000e+00" purity="5.4049956798553467e-01" nType="0">
          <Node pos="l" depth="2" NCoef="0" IVar="-1" Cut="1.1341603472828865e-02" cType="1" res="-9.9000000000000000e+01" rms="0.0000000000000000e+00" purity="5.5943268537521362e-01" nType="1"/>
          <Node pos="r" depth="2" NCoef="0" IVar="-1" Cut="9.1238124296069145e-03" cType="1" res="-9.9000000000000000e+01" rms="0.0000000000000000e+00" purity="2.1144048869609833e-01" nType="-1"/>
        </Node>
        <Node pos="r" depth="1" NCoef="0" IVar="-1" Cut="3.5242676734924316e-02" cType="1" res="-9.9000000000000000e+01" rms="0.0000000000000000e+00" purity="1.1492803692817688e-01" nType="-1"/>
      </Node>
    </BinaryTree>
    <BinaryTree type="DecisionTree" boostWeight="2.6473734598176629e-01" itree="7">
      <Node pos="s" depth="0" NCoef="0" IVar="7" Cut="7.8800910711288452e-01" cType="0" res="-9.9000000000000000e+01" rms="0.0000000000000000e+00" purity="4.3852919340133667e-01" nType="0">
        <Node pos="l" depth="1" NCoef="0" IVar="5" Cut="-1.0169270038604736e+00" cType="1" res="-9.9000000000000000e+01" rms="0.0000000000000000e+00" purity="4.9869906902313232e-01" nType="0">
          <Node pos="l" depth="2" NCoef="0" IVar="2" Cut="3.1879965215921402e-02" cType="1" res="-9.9000000000000000e+01" rms="0.0000000000000000e+00" purity="6.4118570089340210e-01" nType="0">
            <Node pos="l" depth="3" NCoef="0" IVar="-1" Cut="0.0000000000000000e+00" cType="1" res="-9.9000000000000000e+01" rms="0.0000000000000000e+00" purity="6.8732160329818726e-01" nType="1"/>
            <Node pos="r" depth="3" NCoef="0" IVar="-1" Cut="0.0000000000000000e+00" cType="1" res="-9.9000000000000000e+01" rms="0.0000000000000000e+00" purity="4.7301673889160156e-01" nType="-1"/>
          </Node>
          <Node pos="r" depth="2" NCoef="0" IVar="2" Cut="1.1721232905983925e-02" cType="1" res="-9.9000000000000000e+01" rms="0.0000000000000000e+00" purity="4.7285687923431396e-01" nType="0">
            <Node pos="l" depth="3" NCoef="0" IVar="-1" Cut="0.0000000000000000e+00" cType="1" res="-9.9000000000000000e+01" rms="0.0000000000000000e+00" purity="5.7511770725250244e-01" nType="1"/>
            <Node pos="r" depth="3" NCoef="0" IVar="-1" Cut="0.0000000000000000e+00" cType="1" res="-9.9000000000000000e+01" rms="0.0000000000000000e+00" purity="4.2802414298057556e-01" nType="-1"/>
          </Node>
        </Node>
        <Node pos="r" depth="1" NCoef="0" IVar="-1" Cut="4.2291212826967239e-02" cType="1" res="-9.9000000000000000e+01" rms="0.0000000000000000e+00" purity="1.8329547345638275e-01" nType="-1"/>
      </Node>
    </BinaryTree>
    <BinaryTree type="DecisionTree" boostWeight="2.1409131912345911e-01" itree="8">
      <Node pos="s" depth="0" NCoef="0" IVar="0" Cut="1.0879391804337502e-02" cType="1" res="-9.9000000000000000e+01" rms="0.0000000000000000e+00" purity="4.6275627613067627e-01" nType="0">
        <Node pos="l" depth="1" NCoef="0" IVar="5" Cut="1.1020940542221069e+00" cType="0" res="-9.9000000000000000e+01" rms="0.0000000000000000e+00" purity="5.0581425428390503e-01" nType="0">
          <Node pos="l" depth="2" NCoef="0" IVar="-1" Cut="2.8404330834746361e-02" cType="1" res="-9.9000000000000000e+01" rms="0.0000000000000000e+00" purity="6.5207612514495850e-01" nType="1"/>
          <Node pos="r" depth="2" NCoef="0" IVar="5" Cut="-7.7485626935958862e-01" cType="1" res="-9.9000000000000000e+01" rms="0.0000000000000000e+00" purity="4.8142531514167786e-01" nType="0">
            <Node pos="l" depth="3" NCoef="0" IVar="-1" Cut="0.0000000000000000e+00" cType="1" res="-9.9000000000000000e+01" rms="0.0000000000000000e+00" purity="5.7067877054214478e-01" nType="1"/>
            <Node pos="r" depth="3" NCoef="0" IVar="-1" Cut="0.0000000000000000e+00" cType="1" res="-9.9000000000000000e+01" rms="0.0000000000000000e+00" purity="4.4584956765174866e-01" nType="-1"/>
          </Node>
        </Node>
        <Node pos="r" depth="1" NCoef="0" IVar="-1" Cut="3.9941702038049698e-02" cType="1" res="-9.9000000000000000e+01" rms="0.0000000000000000e+00" purity="1.6316770017147064e-01" nType="-1"/>
      </Node>
    </BinaryTree>
    <BinaryTree type="DecisionTree" boostWeight="1.6995367493243255e-01" itree="9">
      <Node pos="s" depth="0" NCoef="0" IVar="7" Cut="7.8243732452392578e-01" cType="0" res="-9.9000000000000000e+01" rms="0.0000000000000000e+00" purity="4.7951483726501465e-01" nType="0">
        <Node pos="l" depth="1" NCoef="0" IVar="8" Cut="1.6341318190097809e-01" cType="1" res="-9.9000000000000000e+01" rms="0.0000000000000000e+00" purity="5.2968621253967285e-01" nType="0">
          <Node pos="l" depth="2" NCoef="0" IVar="-1" Cut="9.4331181049346924e-01" cType="0" res="-9.9000000000000000e+01" rms="0.0000000000000000e+00" purity="5.3990876674652100e-01" nType="1"/>
          <Node pos="r" depth="2" NCoef="0" IVar="-1" Cut="9.3747461214661598e-03" cType="1" res="-9.9000000000000000e+01" rms="0.0000000000000000e+00" purity="3.0112582445144653e-01" nType="-1"/>
        </Node>
        <Node pos="r" depth="1" NCoef="0" IVar="-1" Cut="4.2291212826967239e-02" cType="1" res="-9.9000000000000000e+01" rms="0.0000000000000000e+00" purity="2.2828447818756104e-01" nType="-1"/>
      </Node>
    </BinaryTree>
    <BinaryTree type="DecisionTree" boostWeight="1.8610950280673844e-01" itree="10">
      <Node pos="s" depth="0" NCoef="0" IVar="8" Cut="9.1630958020687103e-02" cType="1" res="-9.9000000000000000e+01" rms="0.0000000000000000e+00" purity="4.5360270142555237e-01" nType="0">
        <Node pos="l" depth="1" NCoef="0" IVar="5" Cut="9.4331181049346924e-01" cType="0" res="-9.9000000000000000e+01" rms="0.0000000000000000e+00" purity="4.9080741405487061e-01" nType="0">
          <Node pos="l" depth="2" NCoef="0" IVar="2" Cut="2.6322701945900917e-02" cType="1" res="-9.9000000000000000e+01" rms="0.0000000000000000e+00" purity="5.8497810363769531e-01" nType="0">
            <Node pos="l" depth="3" NCoef="0" IVar="-1" Cut="0.0000000000000000e+00" cType="1" res="-9.9000000000000000e+01" rms="0.0000000000000000e+00" purity="6.5441811084747314e-01" nType="1"/>
            <Node pos="r" depth="3" NCoef="0" IVar="-1" Cut="0.0000000000000000e+00" cType="1" res="-9.9000000000000000e+01" rms="0.0000000000000000e+00" purity="4.9425658583641052e-01" nType="-1"/>
          </Node>
          <Node pos="r" depth="2" NCoef="0" IVar="2" Cut="1.0115060955286026e-02" cType="1" res="-9.9000000000000000e+01" rms="0.0000000000000000e+00" purity="4.6842345595359802e-01" nType="0">
            <Node pos="l" depth="3" NCoef="0" IVar="-1" Cut="0.0000000000000000e+00" cType="1" res="-9.9000000000000000e+01" rms="0.0000000000000000e+00" purity="5.6698709726333618e-01" nType="1"/>
            <Node pos="r" depth="3" NCoef="0" IVar="-1" Cut="0.0000000000000000e+00" cType="1" res="-9.9000000000000000e+01" rms="0.0000000000000000e+00" purity="4.5111960172653198e-01" nType="-1"/>
          </Node>
        </Node>
        <Node pos="r" depth="1" NCoef="0" IVar="7" Cut="8.0757194757461548e-01" cType="0" res="-9.9000000000000000e+01" rms="0.0000000000000000e+00" purity="2.2916319966316223e-01" nType="0">
          <Node pos="l" depth="2" NCoef="0" IVar="0" Cut="9.1197844594717026e-03" cType="1" res="-9.9000000000000000e+01" rms="0.0000000000000000e+00" purity="4.1157379746437073e-01" nType="0">
            <Node pos="l" depth="3" NCoef="0" IVar="-1" Cut="0.0000000000000000e+00" cType="1" res="-9.9000000000000000e+01" rms="0.0000000000000000e+00" purity="5.8535379171371460e-01" nType="1"/>
            <Node pos="r" depth="3" NCoef="0" IVar="-1" Cut="0.0000000000000000e+00" cType="1" res="-9.9000000000000000e+01" rms="0.0000000000000000e+00" purity="3.2739683985710144e-01" nType="-1"/>
          </Node>
          <Node pos="r" depth="2" NCoef="0" IVar="-1" Cut="9.7428830340504646e-03" cType="1" res="-9.9000000000000000e+01" rms="0.0000000000000000e+00" purity="1.2311428040266037e-01" nType="-1"/>
        </Node>
      </Node>
    </BinaryTree>
    <BinaryTree type="DecisionTree" boostWeight="1.2181926758128282e-01" itree="11">
      <Node pos="s" depth="0" NCoef="0" IVar="8" Cut="9.6329987049102783e-02" cType="1" res="-9.9000000000000000e+01" rms="0.0000000000000000e+00" purity="4.7980648279190063e-01" nType="0">
        <Node pos="l" depth="1" NCoef="0" IVar="3" Cut="2.5544910386088304e-05" cType="1" res="-9.9000000000000000e+01" rms="0.0000000000000000e+00" purity="5.1551949977874756e-01" nType="0">
          <Node pos="l" depth="2" NCoef="0" IVar="-1" Cut="6.8637329339981079e-01" cType="0" res="-9.9000000000000000e+01" rms="0.0000000000000000e+00" purity="5.2210557460784912e-01" nType="1"/>
          <Node pos="r" depth="2" NCoef="0" IVar="-1" Cut="0.0000000000000000e+00" cType="1" res="-9.9000000000000000e+01" rms="0.0000000000000000e+00" purity="2.2645927965641022e-01" nType="-1"/>
        </Node>
        <Node pos="r" depth="1" NCoef="0" IVar="7" Cut="8.0757194757461548e-01" cType="0" res="-9.9000000000000000e+01" rms="0.0000000000000000e+00" purity="2.4724406003952026e-01" nType="0">
          <Node pos="l" depth="2" NCoef="0" IVar="1" Cut="1.2207395397126675e-02" cType="0" res="-9.9000000000000000e+01" rms="0.0000000000000000e+00" purity="4.2289510369300842e-01" nType="0">
            <Node pos="l" depth="3" NCoef="0" IVar="-1" Cut="0.0000000000000000e+00" cType="1" res="-9.9000000000000000e+01" rms="0.0000000000000000e+00" purity="6.3175058364868164e-01" nType="1"/>
            <Node pos="r" depth="3" NCoef="0" IVar="-1" Cut="0.0000000000000000e+00" cType="1" res="-9.9000000000000000e+01" rms="0.0000000000000000e+00" purity="3.6207848787307739e-01" nType="-1"/>
          </Node>
          <Node pos="r" depth="2" NCoef="0" IVar="-1" Cut="3.0442314222455025e-02" cType="1" res="-9.9000000000000000e+01" rms="0.0000000000000000e+00" purity="1.4309164881706238e-01" nType="-1"/>
        </Node>
      </Node>
    </BinaryTree>
    <BinaryTree type="DecisionTree" boostWeight="1.2774002155343120e-01" itree="12">
      <Node pos="s" depth="0" NCoef="0" IVar="8" Cut="1.1747559159994125e-01" cType="1" res="-9.9000000000000000e+01" rms="0.0000000000000000e+00" purity="4.5767042040824890e-01" nType="0">
        <Node pos="l" depth="1" NCoef="0" IVar="3" Cut="2.1792007828480564e-05" cType="1" res="-9.9000000000000000e+01" rms="0.0000000000000000e+00" purity="4.8470267653465271e-01" nType="0">
          <Node pos="l" depth="2" NCoef="0" IVar="5" Cut="6.8637329339981079e-01" cType="0" res="-9.9000000000000000e+01" rms="0.0000000000000000e+00" purity="4.9160468578338623e-01" nType="0">
            <Node pos="l" depth="3" NCoef="0" IVar="-1" Cut="0.0000000000000000e+00" cType="1" res="-9.9000000000000000e+01" rms="0.0000000000000000e+00" purity="5.4464495182037354e-01" nType="1"/>
            <Node pos="r" depth="3" NCoef="0" IVar="-1" Cut="0.0000000000000000e+00" cType="1" res="-9.9000000000000000e+01" rms="0.0000000000000000e+00" purity="4.7134259343147278e-01" nType="-1"/>
          </Node>
          <Node pos="r" depth="2" NCoef="0" IVar="-1" Cut="0.0000000000000000e+00" cType="1" res="-9.9000000000000000e+01" rms="0.0000000000000000e+00" purity="2.6130604743957520e-01" nType="-1"/>
        </Node>
        <Node pos="r" depth="1" NCoef="0" IVar="-1" Cut="7.8840982913970947e-01" cType="0" res="-9.9000000000000000e+01" rms="0.0000000000000000e+00" purity="2.4904504418373108e-01" nType="-1"/>
      </Node>
    </BinaryTree>
    <BinaryTree type="DecisionTree" boostWeight="7.6587441449863181e-02" itree="13">
      <Node pos="s" depth="0" NCoef="0" IVar="7" Cut="7.5717866420745850e-01" cType="0" res="-9.9000000000000000e+01" rms="0.0000000000000000e+00" purity="4.7421246767044067e-01" nType="0">
        <Node pos="l" depth="1" NCoef="0" IVar="0" Cut="1.1070176027715206e-02" cType="1" res="-9.9000000000000000e+01" rms="0.0000000000000000e+00" purity="5.0077086687088013e-01" nType="0">
          <Node pos="l" depth="2" NCoef="0" IVar="-1" Cut="1.2586093507707119e-02" cType="0" res="-9.9000000000000000e+01" rms="0.0000000000000000e+00" purity="5.0727909803390503e-01" nType="1"/>
          <Node pos="r" depth="2" NCoef="0" IVar="-1" Cut="2.1801529452204704e-02" cType="1" res="-9.9000000000000000e+01" rms="0.0000000000000000e+00" purity="3.2823538780212402e-01" nType="-1"/>
        </Node>
        <Node pos="r" depth="1" NCoef="0" IVar="-1" Cut="4.9339748919010162e-02" cType="1" res="-9.9000000000000000e+01" rms="0.0000000000000000e+00" purity="2.6754689216613770e-01" nType="-1"/>
      </Node>
    </BinaryTree>
    <BinaryTree type="DecisionTree" boostWeight="7.9062354138819457e-02" itree="14">
      <Node pos="s" depth="0" NCoef="0" IVar="-1" Cut="1.1747559159994125e-01" cType="1" res="-9.9000000000000000e+01" rms="0.0000000000000000e+00" purity="4.6055099368095398e-01" nType="-1"/>
    </BinaryTree>
    <BinaryTree type="DecisionTree" boostWeight="1.0271748861464038e-01" itree="15">
      <Node pos="s" depth="0" NCoef="0" IVar="8" Cut="1.1747559159994125e-01" cType="1" res="-9.9000000000000000e+01" rms="0.0000000000000000e+00" purity="4.8024469614028931e-01" nType="0">
        <Node pos="l" depth="1" NCoef="0" IVar="3" Cut="1.8351845938013867e-05" cType="1" res="-9.9000000000000000e+01" rms="0.0000000000000000e+00" purity="5.0338745117187500e-01" nType="0">
          <Node pos="l" depth="2" NCoef="0" IVar="6" Cut="3.9373153686523438e+02" cType="1" res="-9.9000000000000000e+01" rms="0.0000000000000000e+00" purity="5.1062268018722534e-01" nType="0">
            <Node pos="l" depth="3" NCoef="0" IVar="-1" Cut="0.0000000000000000e+00" cType="1" res="-9.9000000000000000e+01" rms="0.0000000000000000e+00" purity="5.1894265413284302e-01" nType="1"/>
            <Node pos="r" depth="3" NCoef="0" IVar="-1" Cut="0.0000000000000000e+00" cType="1" res="-9.9000000000000000e+01" rms="0.0000000000000000e+00" purity="3.9073288440704346e-01" nType="-1"/>
          </Node>
          <Node pos="r" depth="2" NCoef="0" IVar="-1" Cut="8.4879010915756226e-01" cType="0" res="-9.9000000000000000e+01" rms="0.0000000000000000e+00" purity="3.3571615815162659e-01" nType="-1"/>
        </Node>
        <Node pos="r" depth="1" NCoef="0" IVar="7" Cut="7.8840982913970947e-01" cType="0" res="-9.9000000000000000e+01" rms="0.0000000000000000e+00" purity="2.9112190008163452e-01" nType="0">
          <Node pos="l" depth="2" NCoef="0" IVar="2" Cut="2.7160696685314178e-02" cType="1" res="-9.9000000000000000e+01" rms="0.0000000000000000e+00" purity="4.4571641087532043e-01" nType="0">
            <Node pos="l" depth="3" NCoef="0" IVar="-1" Cut="0.0000000000000000e+00" cType="1" res="-9.9000000000000000e+01" rms="0.0000000000000000e+00" purity="5.1686877012252808e-01" nType="1"/>
            <Node pos="r" depth="3" NCoef="0" IVar="-1" Cut="0.0000000000000000e+00" cType="1" res="-9.9000000000000000e+01" rms="0.0000000000000000e+00" purity="2.4270591139793396e-01" nType="-1"/>
          </Node>
          <Node pos="r" depth="2" NCoef="0" IVar="-1" Cut="3.0442314222455025e-02" cType="1" res="-9.9000000000000000e+01" rms="0.0000000000000000e+00" purity="1.7557801306247711e-01" nType="-1"/>
        </Node>
      </Node>
    </BinaryTree>
    <BinaryTree type="DecisionTree" boostWeight="1.0758479061404140e-01" itree="16">
      <Node pos="s" depth="0" NCoef="0" IVar="4" Cut="7.8861951828002930e-01" cType="0" res="-9.9000000000000000e+01" rms="0.0000000000000000e+00" purity="4.6295133233070374e-01" nType="0">
        <Node pos="l" depth="1" NCoef="0" IVar="8" Cut="2.1547091007232666e-01" cType="1" res="-9.9000000000000000e+01" rms="0.0000000000000000e+00" purity="4.8050278425216675e-01" nType="0">
          <Node pos="l" depth="2" NCoef="0" IVar="5" Cut="-1.1107528209686279e+00" cType="1" res="-9.9000000000000000e+01" rms="0.0000000000000000e+00" purity="4.8784980177879333e-01" nType="0">
            <Node pos="l" depth="3" NCoef="0" IVar="-1" Cut="0.0000000000000000e+00" cType="1" res="-9.9000000000000000e+01" rms="0.0000000000000000e+00" purity="5.7573300600051880e-01" nType="1"/>
            <Node pos="r" depth="3" NCoef="0" IVar="-1" Cut="0.0000000000000000e+00" cType="1" res="-9.9000000000000000e+01" rms="0.0000000000000000e+00" purity="4.7544535994529724e-01" nType="-1"/>
          </Node>
          <Node pos="r" depth="2" NCoef="0" IVar="-1" Cut="9.5735462382435799e-03" cType="1" res="-9.9000000000000000e+01" rms="0.0000000000000000e+00" purity="3.0441051721572876e-01" nType="-1"/>
        </Node>
        <Node pos="r" depth="1" NCoef="0" IVar="-1" Cut="5.4038770496845245e-02" cType="1" res="-9.9000000000000000e+01" rms="0.0000000000000000e+00" purity="2.6237654685974121e-01" nType="-1"/>
      </Node>
    </BinaryTree>
    <BinaryTree type="DecisionTree" boostWeight="1.2153775030536342e-01" itree="17">
      <Node pos="s" depth="0" NCoef="0" IVar="4" Cut="8.3106148242950439e-01" cType="0" res="-9.9000000000000000e+01" rms="0.0000000000000000e+00" purity="4.8386123776435852e-01" nType="0">
        <Node pos="l" depth="1" NCoef="0" IVar="7" Cut="9.1529500484466553e-01" cType="0" res="-9.9000000000000000e+01" rms="0.0000000000000000e+00" purity="5.0687110424041748e-01" nType="0">
          <Node pos="l" depth="2" NCoef="0" IVar="4" Cut="9.4037747383117676e-01" cType="0" res="-9.9000000000000000e+01" rms="0.0000000000000000e+00" purity="6.0369694232940674e-01" nType="0">
            <Node pos="l" depth="3" NCoef="0" IVar="-1" Cut="0.0000000000000000e+00" cType="1" res="-9.9000000000000000e+01" rms="0.0000000000000000e+00" purity="6.3409662246704102e-01" nType="1"/>
            <Node pos="r" depth="3" NCoef="0" IVar="-1" Cut="0.0000000000000000e+00" cType="1" res="-9.9000000000000000e+01" rms="0.0000000000000000e+00" purity="4.6635800600051880e-01" nType="-1"/>
          </Node>
          <Node pos="r" depth="2" NCoef="0" IVar="7" Cut="8.7136280536651611e-01" cType="1" res="-9.9000000000000000e+01" rms="0.0000000000000000e+00" purity="4.9708920717239380e-01" nType="0">
            <Node pos="l" depth="3" NCoef="0" IVar="-1" Cut="0.0000000000000000e+00" cType="1" res="-9.9000000000000000e+01" rms="0.0000000000000000e+00" purity="5.4077631235122681e-01" nType="1"/>
            <Node pos="r" depth="3" NCoef="0" IVar="-1" Cut="0.0000000000000000e+00" cType="1" res="-9.9000000000000000e+01" rms="0.0000000000000000e+00" purity="4.6568292379379272e-01" nType="-1"/>
          </Node>
        </Node>
        <Node pos="r" depth="1" NCoef="0" IVar="-1" Cut="4.9339748919010162e-02" cType="1" res="-9.9000000000000000e+01" rms="0.0000000000000000e+00" purity="3.3371540904045105e-01" nType="-1"/>
      </Node>
    </BinaryTree>
    <BinaryTree type="DecisionTree" boostWeight="1.2126859029131867e-01" itree="18">
      <Node pos="s" depth="0" NCoef="0" IVar="8" Cut="9.1630958020687103e-02" cType="1" res="-9.9000000000000000e+01" rms="0.0000000000000000e+00" purity="4.9019122123718262e-01" nType="0">
        <Node pos="l" depth="1" NCoef="0" IVar="7" Cut="8.8943201303482056e-01" cType="0" res="-9.9000000000000000e+01" rms="0.0000000000000000e+00" purity="5.1180160045623779e-01" nType="0">
          <Node pos="l" depth="2" NCoef="0" IVar="-1" Cut="9.0169180184602737e-03" cType="1" res="-9.9000000000000000e+01" rms="0.0000000000000000e+00" purity="5.5036097764968872e-01" nType="1"/>
          <Node pos="r" depth="2" NCoef="0" IVar="4" Cut="9.3679434061050415e-01" cType="1" res="-9.9000000000000000e+01" rms="0.0000000000000000e+00" purity="4.8318818211555481e-01" nType="0">
            <Node pos="l" depth="3" NCoef="0" IVar="-1" Cut="0.0000000000000000e+00" cType="1" res="-9.9000000000000000e+01" rms="0.0000000000000000e+00" purity="5.1253294944763184e-01" nType="1"/>
            <Node pos="r" depth="3" NCoef="0" IVar="-1" Cut="0.0000000000000000e+00" cType="1" res="-9.9000000000000000e+01" rms="0.0000000000000000e+00" purity="3.8629019260406494e-01" nType="-1"/>
          </Node>
        </Node>
        <Node pos="r" depth="1" NCoef="0" IVar="7" Cut="8.0757194757461548e-01" cType="0" res="-9.9000000000000000e+01" rms="0.0000000000000000e+00" purity="3.3590582013130188e-01" nType="0">
          <Node pos="l" depth="2" NCoef="0" IVar="2" Cut="2.2098474204540253e-02" cType="1" res="-9.9000000000000000e+01" rms="0.0000000000000000e+00" purity="4.7831109166145325e-01" nType="0">
            <Node pos="l" depth="3" NCoef="0" IVar="-1" Cut="0.0000000000000000e+00" cType="1" res="-9.9000000000000000e+01" rms="0.0000000000000000e+00" purity="5.4921698570251465e-01" nType="1"/>
            <Node pos="r" depth="3" NCoef="0" IVar="-1" Cut="0.0000000000000000e+00" cType="1" res="-9.9000000000000000e+01" rms="0.0000000000000000e+00" purity="3.5503959655761719e-01" nType="-1"/>
          </Node>
          <Node pos="r" depth="2" NCoef="0" IVar="-1" Cut="3.0442314222455025e-02" cType="1" res="-9.9000000000000000e+01" rms="0.0000000000000000e+00" purity="2.3359553515911102e-01" nType="-1"/>
        </Node>
      </Node>
    </BinaryTree>
    <BinaryTree type="DecisionTree" boostWeight="1.0581803556174446e-01" itree="19">
      <Node pos="s" depth="0" NCoef="0" IVar="7" Cut="7.8800910711288452e-01" cType="0" res="-9.9000000000000000e+01" rms="0.0000000000000000e+00" purity="4.7226193547248840e-01" nType="0">
        <Node pos="l" depth="1" NCoef="0" IVar="1" Cut="1.2586093507707119e-02" cType="0" res="-9.9000000000000000e+01" rms="0.0000000000000000e+00" purity="4.9308988451957703e-01" nType="0">
          <Node pos="l" depth="2" NCoef="0" IVar="-1" Cut="0.0000000000000000e+00" cType="1" res="-9.9000000000000000e+01" rms="0.0000000000000000e+00" purity="6.7754334211349487e-01" nType="1"/>
          <Node pos="r" depth="2" NCoef="0" IVar="7" Cut="8.8929063081741333e-01" cType="0" res="-9.9000000000000000e+01" rms="0.0000000000000000e+00" purity="4.8684805631637573e-01" nType="0">
            <Node pos="l" depth="3" NCoef="0" IVar="-1" Cut="0.0000000000000000e+00" cType="1" res="-9.9000000000000000e+01" rms="0.0000000000000000e+00" purity="5.1953214406967163e-01" nType="1"/>
            <Node pos="r" depth="3" NCoef="0" IVar="-1" Cut="0.0000000000000000e+00" cType="1" res="-9.9000000000000000e+01" rms="0.0000000000000000e+00" purity="4.5770829916000366e-01" nType="-1"/>
          </Node>
        </Node>
        <Node pos="r" depth="1" NCoef="0" IVar="8" Cut="4.9339748919010162e-02" cType="1" res="-9.9000000000000000e+01" rms="0.0000000000000000e+00" purity="3.5668355226516724e-01" nType="0">
          <Node pos="l" depth="2" NCoef="0" IVar="5" Cut="-2.8143472969532013e-02" cType="0" res="-9.9000000000000000e+01" rms="0.0000000000000000e+00" purity="4.6325275301933289e-01" nType="0">
            <Node pos="l" depth="3" NCoef="0" IVar="-1" Cut="0.0000000000000000e+00" cType="1" res="-9.9000000000000000e+01" rms="0.0000000000000000e+00" purity="5.0045806169509888e-01" nType="1"/>
            <Node pos="r" depth="3" NCoef="0" IVar="-1" Cut="0.0000000000000000e+00" cType="1" res="-9.9000000000000000e+01" rms="0.0000000000000000e+00" purity="4.2726552486419678e-01" nType="-1"/>
          </Node>
          <Node pos="r" depth="2" NCoef="0" IVar="-1" Cut="3.0442314222455025e-02" cType="1" res="-9.9000000000000000e+01" rms="0.0000000000000000e+00" purity="2.4009615182876587e-01" nType="-1"/>
        </Node>
      </Node>
    </BinaryTree>
    <BinaryTree type="DecisionTree" boostWeight="8.9705149830758987e-02" itree="20">
      <Node pos="s" depth="0" NCoef="0" IVar="4" Cut="7.7800899744033813e-01" cType="0" res="-9.9000000000000000e+01" rms="0.0000000000000000e+00" purity="4.7459149360656738e-01" nType="0">
        <Node pos="l" depth="1" NCoef="0" IVar="3" Cut="2.4638024115120061e-05" cType="1" res="-9.9000000000000000e+01" rms="0.0000000000000000e+00" purity="4.8686271905899048e-01" nType="0">
          <Node pos="l" depth="2" NCoef="0" IVar="6" Cut="2.2601037597656250e+02" cType="1" res="-9.9000000000000000e+01" rms="0.0000000000000000e+00" purity="4.9195262789726257e-01" nType="0">
            <Node pos="l" depth="3" NCoef="0" IVar="-1" Cut="0.0000000000000000e+00" cType="1" res="-9.9000000000000000e+01" rms="0.0000000000000000e+00" purity="5.2856200933456421e-01" nType="1"/>
            <Node pos="r" depth="3" NCoef="0" IVar="-1" Cut="0.0000000000000000e+00" cType="1" res="-9.9000000000000000e+01" rms="0.0000000000000000e+00" purity="4.7012478113174438e-01" nType="-1"/>
          </Node>
          <Node pos="r" depth="2" NCoef="0" IVar="-1" Cut="8.0658107995986938e-01" cType="0" res="-9.9000000000000000e+01" rms="0.0000000000000000e+00" purity="3.1205701828002930e-01" nType="-1"/>
        </Node>
        <Node pos="r" depth="1" NCoef="0" IVar="-1" Cut="6.1087306588888168e-02" cType="1" res="-9.9000000000000000e+01" rms="0.0000000000000000e+00" purity="3.0634918808937073e-01" nType="-1"/>
      </Node>
    </BinaryTree>
    <BinaryTree type="DecisionTree" boostWeight="1.0621192130953126e-01" itree="21">
      <Node pos="s" depth="0" NCoef="0" IVar="7" Cut="7.8800910711288452e-01" cType="0" res="-9.9000000000000000e+01" rms="0.0000000000000000e+00" purity="4.8176687955856323e-01" nType="0">
        <Node pos="l" depth="1" NCoef="0" IVar="1" Cut="1.2140395119786263e-02" cType="0" res="-9.9000000000000000e+01" rms="0.0000000000000000e+00" purity="5.0007748603820801e-01" nType="0">
          <Node pos="l" depth="2" NCoef="0" IVar="0" Cut="1.0047008283436298e-02" cType="1" res="-9.9000000000000000e+01" rms="0.0000000000000000e+00" purity="6.4471799135208130e-01" nType="0">
            <Node pos="l" depth="3" NCoef="0" IVar="-1" Cut="0.0000000000000000e+00" cType="1" res="-9.9000000000000000e+01" rms="0.0000000000000000e+00" purity="7.6395517587661743e-01" nType="1"/>
            <Node pos="r" depth="3" NCoef="0" IVar="-1" Cut="0.0000000000000000e+00" cType="1" res="-9.9000000000000000e+01" rms="0.0000000000000000e+00" purity="3.7208926677703857e-01" nType="-1"/>
          </Node>
          <Node pos="r" depth="2" NCoef="0" IVar="1" Cut="9.0423850342631340e-03" cType="1" res="-9.9000000000000000e+01" rms="0.0000000000000000e+00" purity="4.9348053336143494e-01" nType="0">
            <Node pos="l" depth="3" NCoef="0" IVar="-1" Cut="0.0000000000000000e+00" cType="1" res="-9.9000000000000000e+01" rms="0.0000000000000000e+00" purity="5.2592724561691284e-01" nType="1"/>
            <Node pos="r" depth="3" NCoef="0" IVar="-1" Cut="0.0000000000000000e+00" cType="1" res="-9.9000000000000000e+01" rms="0.0000000000000000e+00" purity="4.6468263864517212e-01" nType="-1"/>
          </Node>
        </Node>
        <Node pos="r" depth="1" NCoef="0" IVar="8" Cut="4.9339748919010162e-02" cType="1" res="-9.9000000000000000e+01" rms="0.0000000000000000e+00" purity="3.7816920876502991e-01" nType="0">
          <Node pos="l" depth="2" NCoef="0" IVar="8" Cut="6.6809011623263359e-03" cType="0" res="-9.9000000000000000e+01" rms="0.0000000000000000e+00" purity="4.7049707174301147e-01" nType="0">
            <Node pos="l" depth="3" NCoef="0" IVar="-1" Cut="0.0000000000000000e+00" cType="1" res="-9.9000000000000000e+01" rms="0.0000000000000000e+00" purity="5.2519774436950684e-01" nType="1"/>
            <Node pos="r" depth="3" NCoef="0" IVar="-1" Cut="0.0000000000000000e+00" cType="1" res="-9.9000000000000000e+01" rms="0.0000000000000000e+00" purity="4.4603911042213440e-01" nType="-1"/>
          </Node>
          <Node pos="r" depth="2" NCoef="0" IVar="-1" Cut="3.0442314222455025e-02" cType="1" res="-9.9000000000000000e+01" rms="0.0000000000000000e+00" purity="2.7339008450508118e-01" nType="-1"/>
        </Node>
      </Node>
    </BinaryTree>
    <BinaryTree type="DecisionTree" boostWeight="5.2380854924082607e-02" itree="22">
      <Node pos="s" depth="0" NCoef="0" IVar="7" Cut="7.4009191989898682e-01" cType="0" res="-9.9000000000000000e+01" rms="0.0000000000000000e+00" purity="4.8525935411453247e-01" nType="0">
        <Node pos="l" depth="1" NCoef="0" IVar="2" Cut="3.5957302898168564e-02" cType="1" res="-9.9000000000000000e+01" rms="0.0000000000000000e+00" purity="4.9721345305442810e-01" nType="0">
          <Node pos="l" depth="2" NCoef="0" IVar="1" Cut="1.2247055768966675e-02" cType="0" res="-9.9000000000000000e+01" rms="0.0000000000000000e+00" purity="5.0353842973709106e-01" nType="0">
            <Node pos="l" depth="3" NCoef="0" IVar="-1" Cut="0.0000000000000000e+00" cType="1" res="-9.9000000000000000e+01" rms="0.0000000000000000e+00" purity="6.5205842256546021e-01" nType="1"/>
            <Node pos="r" depth="3" NCoef="0" IVar="-1" Cut="0.0000000000000000e+00" cType="1" res="-9.9000000000000000e+01" rms="0.0000000000000000e+00" purity="4.9671003222465515e-01" nType="-1"/>
          </Node>
          <Node pos="r" depth="2" NCoef="0" IVar="-1" Cut="3.6158990114927292e-02" cType="1" res="-9.9000000000000000e+01" rms="0.0000000000000000e+00" purity="4.0738055109977722e-01" nType="-1"/>
        </Node>
        <Node pos="r" depth="1" NCoef="0" IVar="-1" Cut="5.1689259707927704e-02" cType="1" res="-9.9000000000000000e+01" rms="0.0000000000000000e+00" purity="3.5670083761215210e-01" nType="-1"/>
      </Node>
    </BinaryTree>
    <BinaryTree type="DecisionTree" boostWeight="5.8335082453652425e-02" itree="23">
      <Node pos="s" depth="0" NCoef="0" IVar="7" Cut="7.4009191989898682e-01" cType="0" res="-9.9000000000000000e+01" rms="0.0000000000000000e+00" purity="4.9736419320106506e-01" nType="0">
        <Node pos="l" depth="1" NCoef="0" IVar="2" Cut="3.5957302898168564e-02" cType="1" res="-9.9000000000000000e+01" rms="0.0000000000000000e+00" purity="5.0923776626586914e-01" nType="0">
          <Node pos="l" depth="2" NCoef="0" IVar="-1" Cut="1.1623562313616276e-02" cType="0" res="-9.9000000000000000e+01" rms="0.0000000000000000e+00" purity="5.1548767089843750e-01" nType="1"/>
          <Node pos="r" depth="2" NCoef="0" IVar="-1" Cut="3.6158990114927292e-02" cType="1" res="-9.9000000000000000e+01" rms="0.0000000000000000e+00" purity="4.2008516192436218e-01" nType="-1"/>
        </Node>
        <Node pos="r" depth="1" NCoef="0" IVar="-1" Cut="5.1689259707927704e-02" cType="1" res="-9.9000000000000000e+01" rms="0.0000000000000000e+00" purity="3.6880856752395630e-01" nType="-1"/>
      </Node>
    </BinaryTree>
    <BinaryTree type="DecisionTree" boostWeight="6.5145075901165639e-02" itree="24">
      <Node pos="s" depth="0" NCoef="0" IVar="8" Cut="2.1615508198738098e-01" cType="1" res="-9.9000000000000000e+01" rms="0.0000000000000000e+00" purity="4.8697665333747864e-01" nType="0">
        <Node pos="l" depth="1" NCoef="0" IVar="3" Cut="-1.6470570699311793e-05" cType="0" res="-9.9000000000000000e+01" rms="0.0000000000000000e+00" purity="4.9557524919509888e-01" nType="0">
          <Node pos="l" depth="2" NCoef="0" IVar="3" Cut="1.4895765161782037e-05" cType="1" res="-9.9000000000000000e+01" rms="0.0000000000000000e+00" purity="5.0367188453674316e-01" nType="0">
            <Node pos="l" depth="3" NCoef="0" IVar="-1" Cut="0.0000000000000000e+00" cType="1" res="-9.9000000000000000e+01" rms="0.0000000000000000e+00" purity="5.1214545965194702e-01" nType="1"/>
            <Node pos="r" depth="3" NCoef="0" IVar="-1" Cut="0.0000000000000000e+00" cType="1" res="-9.9000000000000000e+01" rms="0.0000000000000000e+00" purity="4.0048164129257202e-01" nType="-1"/>
          </Node>
          <Node pos="r" depth="2" NCoef="0" IVar="-1" Cut="8.1447309255599976e-01" cType="0" res="-9.9000000000000000e+01" rms="0.0000000000000000e+00" purity="4.0267568826675415e-01" nType="-1"/>
        </Node>
        <Node pos="r" depth="1" NCoef="0" IVar="-1" Cut="2.9836876317858696e-02" cType="1" res="-9.9000000000000000e+01" rms="0.0000000000000000e+00" purity="3.4049502015113831e-01" nType="-1"/>
      </Node>
    </BinaryTree>
    <BinaryTree type="DecisionTree" boostWeight="6.4240221087865437e-02" itree="25">
      <Node pos="s" depth="0" NCoef="0" IVar="4" Cut="7.7800899744033813e-01" cType="0" res="-9.9000000000000000e+01" rms="0.0000000000000000e+00" purity="4.7706532478332520e-01" nType="0">
        <Node pos="l" depth="1" NCoef="0" IVar="8" Cut="2.9485493898391724e-01" cType="1" res="-9.9000000000000000e+01" rms="0.0000000000000000e+00" purity="4.8484104871749878e-01" nType="0">
          <Node pos="l" depth="2" NCoef="0" IVar="1" Cut="1.2245083227753639e-02" cType="0" res="-9.9000000000000000e+01" rms="0.0000000000000000e+00" purity="4.8806029558181763e-01" nType="0">
            <Node pos="l" depth="3" NCoef="0" IVar="-1" Cut="0.0000000000000000e+00" cType="1" res="-9.9000000000000000e+01" rms="0.0000000000000000e+00" purity="5.9647387266159058e-01" nType="1"/>
            <Node pos="r" depth="3" NCoef="0" IVar="-1" Cut="0.0000000000000000e+00" cType="1" res="-9.9000000000000000e+01" rms="0.0000000000000000e+00" purity="4.8213672637939453e-01" nType="-1"/>
          </Node>
          <Node pos="r" depth="2" NCoef="0" IVar="-1" Cut="2.2035595029592514e-02" cType="1" res="-9.9000000000000000e+01" rms="0.0000000000000000e+00" purity="3.4081351757049561e-01" nType="-1"/>
        </Node>
        <Node pos="r" depth="1" NCoef="0" IVar="-1" Cut="4.9445658922195435e-02" cType="1" res="-9.9000000000000000e+01" rms="0.0000000000000000e+00" purity="3.6536282300949097e-01" nType="-1"/>
      </Node>
    </BinaryTree>
    <BinaryTree type="DecisionTree" boostWeight="4.2657258748450229e-02" itree="26">
      <Node pos="s" depth="0" NCoef="0" IVar="8" Cut="1.7151436209678650e-01" cType="1" res="-9.9000000000000000e+01" rms="0.0000000000000000e+00" purity="4.9158126115798950e-01" nType="0">
        <Node pos="l" depth="1" NCoef="0" IVar="2" Cut="4.6038366854190826e-02" cType="1" res="-9.9000000000000000e+01" rms="0.0000000000000000e+00" purity="4.9996635317802429e-01" nType="0">
          <Node pos="l" depth="2" NCoef="0" IVar="5" Cut="-1.2594307661056519e+00" cType="1" res="-9.9000000000000000e+01" rms="0.0000000000000000e+00" purity="5.0338792800903320e-01" nType="0">
            <Node pos="l" depth="3" NCoef="0" IVar="-1" Cut="0.0000000000000000e+00" cType="1" res="-9.9000000000000000e+01" rms="0.0000000000000000e+00" purity="5.9269905090332031e-01" nType="1"/>
            <Node pos="r" depth="3" NCoef="0" IVar="-1" Cut="0.0000000000000000e+00" cType="1" res="-9.9000000000000000e+01" rms="0.0000000000000000e+00" purity="4.9710041284561157e-01" nType="-1"/>
          </Node>
          <Node pos="r" depth="2" NCoef="0" IVar="-1" Cut="0.0000000000000000e+00" cType="1" res="-9.9000000000000000e+01" rms="0.0000000000000000e+00" purity="3.5132822394371033e-01" nType="-1"/>
        </Node>
        <Node pos="r" depth="1" NCoef="0" IVar="2" Cut="2.9903326183557510e-02" cType="1" res="-9.9000000000000000e+01" rms="0.0000000000000000e+00" purity="3.8184073567390442e-01" nType="0">
          <Node pos="l" depth="2" NCoef="0" IVar="0" Cut="9.4431042671203613e-03" cType="1" res="-9.9000000000000000e+01" rms="0.0000000000000000e+00" purity="4.5233786106109619e-01" nType="0">
            <Node pos="l" depth="3" NCoef="0" IVar="-1" Cut="0.0000000000000000e+00" cType="1" res="-9.9000000000000000e+01" rms="0.0000000000000000e+00" purity="5.7921606302261353e-01" nType="1"/>
            <Node pos="r" depth="3" NCoef="0" IVar="-1" Cut="0.0000000000000000e+00" cType="1" res="-9.9000000000000000e+01" rms="0.0000000000000000e+00" purity="4.0934690833091736e-01" nType="-1"/>
          </Node>
          <Node pos="r" depth="2" NCoef="0" IVar="-1" Cut="1.3160505332052708e-02" cType="0" res="-9.9000000000000000e+01" rms="0.0000000000000000e+00" purity="2.5607496500015259e-01" nType="-1"/>
        </Node>
      </Node>
    </BinaryTree>
    <BinaryTree type="DecisionTree" boostWeight="6.0189429465988764e-02" itree="27">
      <Node pos="s" depth="0" NCoef="0" IVar="8" Cut="1.7151436209678650e-01" cType="1" res="-9.9000000000000000e+01" rms="0.0000000000000000e+00" purity="5.0072544813156128e-01" nType="0">
        <Node pos="l" depth="1" NCoef="0" IVar="2" Cut="4.6038366854190826e-02" cType="1" res="-9.9000000000000000e+01" rms="0.0000000000000000e+00" purity="5.0926280021667480e-01" nType="0">
          <Node pos="l" depth="2" NCoef="0" IVar="7" Cut="8.7156283855438232e-01" cType="1" res="-9.9000000000000000e+01" rms="0.0000000000000000e+00" purity="5.1265275478363037e-01" nType="0">
            <Node pos="l" depth="3" NCoef="0" IVar="-1" Cut="0.0000000000000000e+00" cType="1" res="-9.9000000000000000e+01" rms="0.0000000000000000e+00" purity="5.3874337673187256e-01" nType="1"/>
            <Node pos="r" depth="3" NCoef="0" IVar="-1" Cut="0.0000000000000000e+00" cType="1" res="-9.9000000000000000e+01" rms="0.0000000000000000e+00" purity="4.9415886402130127e-01" nType="-1"/>
          </Node>
          <Node pos="r" depth="2" NCoef="0" IVar="-1" Cut="0.0000000000000000e+00" cType="1" res="-9.9000000000000000e+01" rms="0.0000000000000000e+00" purity="3.6111024022102356e-01" nType="-1"/>
        </Node>
        <Node pos="r" depth="1" NCoef="0" IVar="2" Cut="2.9903326183557510e-02" cType="1" res="-9.9000000000000000e+01" rms="0.0000000000000000e+00" purity="3.8835996389389038e-01" nType="0">
          <Node pos="l" depth="2" NCoef="0" IVar="0" Cut="9.4431042671203613e-03" cType="1" res="-9.9000000000000000e+01" rms="0.0000000000000000e+00" purity="4.5744425058364868e-01" nType="0">
            <Node pos="l" depth="3" NCoef="0" IVar="-1" Cut="0.0000000000000000e+00" cType="1" res="-9.9000000000000000e+01" rms="0.0000000000000000e+00" purity="5.6878572702407837e-01" nType="1"/>
            <Node pos="r" depth="3" NCoef="0" IVar="-1" Cut="0.0000000000000000e+00" cType="1" res="-9.9000000000000000e+01" rms="0.0000000000000000e+00" purity="4.1969910264015198e-01" nType="-1"/>
          </Node>
          <Node pos="r" depth="2" NCoef="0" IVar="-1" Cut="1.3139156624674797e-02" cType="0" res="-9.9000000000000000e+01" rms="0.0000000000000000e+00" purity="2.6428535580635071e-01" nType="-1"/>
        </Node>
      </Node>
    </BinaryTree>
    <BinaryTree type="DecisionTree" boostWeight="7.3200497286755734e-02" itree="28">
      <Node pos="s" depth="0" NCoef="0" IVar="7" Cut="8.1326782703399658e-01" cType="0" res="-9.9000000000000000e+01" rms="0.0000000000000000e+00" purity="5.0409120321273804e-01" nType="0">
        <Node pos="l" depth="1" NCoef="0" IVar="1" Cut="1.1694697663187981e-02" cType="0" res="-9.9000000000000000e+01" rms="0.0000000000000000e+00" purity="5.2161002159118652e-01" nType="0">
          <Node pos="l" depth="2" NCoef="0" IVar="4" Cut="8.8431680202484131e-01" cType="0" res="-9.9000000000000000e+01" rms="0.0000000000000000e+00" purity="6.4038670063018799e-01" nType="0">
            <Node pos="l" depth="3" NCoef="0" IVar="-1" Cut="0.0000000000000000e+00" cType="1" res="-9.9000000000000000e+01" rms="0.0000000000000000e+00" purity="7.5093513727188110e-01" nType="1"/>
            <Node pos="r" depth="3" NCoef="0" IVar="-1" Cut="0.0000000000000000e+00" cType="1" res="-9.9000000000000000e+01" rms="0.0000000000000000e+00" purity="4.5203441381454468e-01" nType="-1"/>
          </Node>
          <Node pos="r" depth="2" NCoef="0" IVar="-1" Cut="-1.2955175638198853e+00" cType="1" res="-9.9000000000000000e+01" rms="0.0000000000000000e+00" purity="5.1564151048660278e-01" nType="1"/>
        </Node>
        <Node pos="r" depth="1" NCoef="0" IVar="8" Cut="4.9339748919010162e-02" cType="1" res="-9.9000000000000000e+01" rms="0.0000000000000000e+00" purity="4.3561363220214844e-01" nType="0">
          <Node pos="l" depth="2" NCoef="0" IVar="4" Cut="8.7090015411376953e-01" cType="1" res="-9.9000000000000000e+01" rms="0.0000000000000000e+00" purity="4.8869141936302185e-01" nType="0">
            <Node pos="l" depth="3" NCoef="0" IVar="-1" Cut="0.0000000000000000e+00" cType="1" res="-9.9000000000000000e+01" rms="0.0000000000000000e+00" purity="5.2989405393600464e-01" nType="1"/>
            <Node pos="r" depth="3" NCoef="0" IVar="-1" Cut="0.0000000000000000e+00" cType="1" res="-9.9000000000000000e+01" rms="0.0000000000000000e+00" purity="4.1306498646736145e-01" nType="-1"/>
          </Node>
          <Node pos="r" depth="2" NCoef="0" IVar="-1" Cut="2.1095935255289078e-02" cType="1" res="-9.9000000000000000e+01" rms="0.0000000000000000e+00" purity="3.5036391019821167e-01" nType="-1"/>
        </Node>
      </Node>
    </BinaryTree>
    <BinaryTree type="DecisionTree" boostWeight="6.9273290386352909e-02" itree="29">
      <Node pos="s" depth="0" NCoef="0" IVar="2" Cut="2.7894351631402969e-02" cType="1" res="-9.9000000000000000e+01" rms="0.0000000000000000e+00" purity="4.9076959490776062e-01" nType="0">
        <Node pos="l" depth="1" NCoef="0" IVar="1" Cut="1.1332285590469837e-02" cType="0" res="-9.9000000000000000e+01" rms="0.0000000000000000e+00" purity="5.0551617145538330e-01" nType="0">
          <Node pos="l" depth="2" NCoef="0" IVar="0" Cut="9.7559569403529167e-03" cType="1" res="-9.9000000000000000e+01" rms="0.0000000000000000e+00" purity="5.9031367301940918e-01" nType="0">
            <Node pos="l" depth="3" NCoef="0" IVar="-1" Cut="0.0000000000000000e+00" cType="1" res="-9.9000000000000000e+01" rms="0.0000000000000000e+00" purity="7.4599015712738037e-01" nType="1"/>
            <Node pos="r" depth="3" NCoef="0" IVar="-1" Cut="0.0000000000000000e+00" cType="1" res="-9.9000000000000000e+01" rms="0.0000000000000000e+00" purity="4.8099958896636963e-01" nType="-1"/>
          </Node>
          <Node pos="r" depth="2" NCoef="0" IVar="2" Cut="9.3112410977482796e-03" cType="1" res="-9.9000000000000000e+01" rms="0.0000000000000000e+00" purity="4.9634250998497009e-01" nType="0">
            <Node pos="l" depth="3" NCoef="0" IVar="-1" Cut="0.0000000000000000e+00" cType="1" res="-9.9000000000000000e+01" rms="0.0000000000000000e+00" purity="5.9030616283416748e-01" nType="1"/>
            <Node pos="r" depth="3" NCoef="0" IVar="-1" Cut="0.0000000000000000e+00" cType="1" res="-9.9000000000000000e+01" rms="0.0000000000000000e+00" purity="4.8857393860816956e-01" nType="-1"/>
          </Node>
        </Node>
        <Node pos="r" depth="1" NCoef="0" IVar="-1" Cut="9.7646825015544891e-03" cType="1" res="-9.9000000000000000e+01" rms="0.0000000000000000e+00" purity="4.3664732575416565e-01" nType="-1"/>
      </Node>
    </BinaryTree>
    <BinaryTree type="DecisionTree" boostWeight="3.9635071667884089e-02" itree="30">
      <Node pos="s" depth="0" NCoef="0" IVar="2" Cut="3.5890020430088043e-02" cType="1" res="-9.9000000000000000e+01" rms="0.0000000000000000e+00" purity="5.0512254238128662e-01" nType="0">
        <Node pos="l" depth="1" NCoef="0" IVar="-1" Cut="1.1237461566925049e+00" cType="0" res="-9.9000000000000000e+01" rms="0.0000000000000000e+00" purity="5.1369190216064453e-01" nType="1"/>
        <Node pos="r" depth="1" NCoef="0" IVar="-1" Cut="3.2599549740552902e-02" cType="1" res="-9.9000000000000000e+01" rms="0.0000000000000000e+00" purity="4.1807317733764648e-01" nType="-1"/>
      </Node>
    </BinaryTree>
    <BinaryTree type="DecisionTree" boostWeight="5.2329529345826332e-02" itree="31">
      <Node pos="s" depth="0" NCoef="0" IVar="7" Cut="8.0843895673751831e-01" cType="0" res="-9.9000000000000000e+01" rms="0.0000000000000000e+00" purity="4.9698856472969055e-01" nType="0">
        <Node pos="l" depth="1" NCoef="0" IVar="1" Cut="1.1843263171613216e-02" cType="0" res="-9.9000000000000000e+01" rms="0.0000000000000000e+00" purity="5.0846922397613525e-01" nType="0">
          <Node pos="l" depth="2" NCoef="0" IVar="0" Cut="9.6319960430264473e-03" cType="1" res="-9.9000000000000000e+01" rms="0.0000000000000000e+00" purity="6.3151395320892334e-01" nType="0">
            <Node pos="l" depth="3" NCoef="0" IVar="-1" Cut="0.0000000000000000e+00" cType="1" res="-9.9000000000000000e+01" rms="0.0000000000000000e+00" purity="7.1611475944519043e-01" nType="1"/>
            <Node pos="r" depth="3" NCoef="0" IVar="-1" Cut="0.0000000000000000e+00" cType="1" res="-9.9000000000000000e+01" rms="0.0000000000000000e+00" purity="4.5884904265403748e-01" nType="-1"/>
          </Node>
          <Node pos="r" depth="2" NCoef="0" IVar="5" Cut="-1.2955175638198853e+00" cType="1" res="-9.9000000000000000e+01" rms="0.0000000000000000e+00" purity="5.0292432308197021e-01" nType="0">
            <Node pos="l" depth="3" NCoef="0" IVar="-1" Cut="0.0000000000000000e+00" cType="1" res="-9.9000000000000000e+01" rms="0.0000000000000000e+00" purity="6.0480433702468872e-01" nType="1"/>
            <Node pos="r" depth="3" NCoef="0" IVar="-1" Cut="0.0000000000000000e+00" cType="1" res="-9.9000000000000000e+01" rms="0.0000000000000000e+00" purity="4.9791315197944641e-01" nType="-1"/>
          </Node>
        </Node>
        <Node pos="r" depth="1" NCoef="0" IVar="8" Cut="3.7592187523841858e-02" cType="1" res="-9.9000000000000000e+01" rms="0.0000000000000000e+00" purity="4.4790664315223694e-01" nType="0">
          <Node pos="l" depth="2" NCoef="0" IVar="4" Cut="8.5985487699508667e-01" cType="1" res="-9.9000000000000000e+01" rms="0.0000000000000000e+00" purity="4.9805584549903870e-01" nType="0">
            <Node pos="l" depth="3" NCoef="0" IVar="-1" Cut="0.0000000000000000e+00" cType="1" res="-9.9000000000000000e+01" rms="0.0000000000000000e+00" purity="5.2719545364379883e-01" nType="1"/>
            <Node pos="r" depth="3" NCoef="0" IVar="-1" Cut="0.0000000000000000e+00" cType="1" res="-9.9000000000000000e+01" rms="0.0000000000000000e+00" purity="4.5460474491119385e-01" nType="-1"/>
          </Node>
          <Node pos="r" depth="2" NCoef="0" IVar="0" Cut="9.2534245923161507e-03" cType="1" res="-9.9000000000000000e+01" rms="0.0000000000000000e+00" purity="3.7672936916351318e-01" nType="0">
            <Node pos="l" depth="3" NCoef="0" IVar="-1" Cut="0.0000000000000000e+00" cType="1" res="-9.9000000000000000e+01" rms="0.0000000000000000e+00" purity="5.8602970838546753e-01" nType="1"/>
            <Node pos="r" depth="3" NCoef="0" IVar="-1" Cut="0.0000000000000000e+00" cType="1" res="-9.9000000000000000e+01" rms="0.0000000000000000e+00" purity="3.4549641609191895e-01" nType="-1"/>
          </Node>
        </Node>
      </Node>
    </BinaryTree>
    <BinaryTree type="DecisionTree" boostWeight="6.6570129929503591e-02" itree="32">
      <Node pos="s" depth="0" NCoef="0" IVar="7" Cut="8.0843895673751831e-01" cType="0" res="-9.9000000000000000e+01" rms="0.0000000000000000e+00" purity="5.0650477409362793e-01" nType="0">
        <Node pos="l" depth="1" NCoef="0" IVar="1" Cut="1.2586093507707119e-02" cType="0" res="-9.9000000000000000e+01" rms="0.0000000000000000e+00" purity="5.1963186264038086e-01" nType="0">
          <Node pos="l" depth="2" NCoef="0" IVar="-1" Cut="0.0000000000000000e+00" cType="1" res="-9.9000000000000000e+01" rms="0.0000000000000000e+00" purity="6.6841661930084229e-01" nType="1"/>
          <Node pos="r" depth="2" NCoef="0" IVar="6" Cut="5.1929815673828125e+02" cType="1" res="-9.9000000000000000e+01" rms="0.0000000000000000e+00" purity="5.1588398218154907e-01" nType="0">
            <Node pos="l" depth="3" NCoef="0" IVar="-1" Cut="0.0000000000000000e+00" cType="1" res="-9.9000000000000000e+01" rms="0.0000000000000000e+00" purity="5.1886993646621704e-01" nType="1"/>
            <Node pos="r" depth="3" NCoef="0" IVar="-1" Cut="0.0000000000000000e+00" cType="1" res="-9.9000000000000000e+01" rms="0.0000000000000000e+00" purity="3.8317018747329712e-01" nType="-1"/>
          </Node>
        </Node>
        <Node pos="r" depth="1" NCoef="0" IVar="8" Cut="3.7592187523841858e-02" cType="1" res="-9.9000000000000000e+01" rms="0.0000000000000000e+00" purity="4.5018652081489563e-01" nType="0">
          <Node pos="l" depth="2" NCoef="0" IVar="3" Cut="-1.7538984593556961e-06" cType="0" res="-9.9000000000000000e+01" rms="0.0000000000000000e+00" purity="4.9546900391578674e-01" nType="0">
            <Node pos="l" depth="3" NCoef="0" IVar="-1" Cut="0.0000000000000000e+00" cType="1" res="-9.9000000000000000e+01" rms="0.0000000000000000e+00" purity="5.2607619762420654e-01" nType="1"/>
            <Node pos="r" depth="3" NCoef="0" IVar="-1" Cut="0.0000000000000000e+00" cType="1" res="-9.9000000000000000e+01" rms="0.0000000000000000e+00" purity="4.5482718944549561e-01" nType="-1"/>
          </Node>
          <Node pos="r" depth="2" NCoef="0" IVar="2" Cut="2.1158931776881218e-02" cType="1" res="-9.9000000000000000e+01" rms="0.0000000000000000e+00" purity="3.8554009795188904e-01" nType="0">
            <Node pos="l" depth="3" NCoef="0" IVar="-1" Cut="0.0000000000000000e+00" cType="1" res="-9.9000000000000000e+01" rms="0.0000000000000000e+00" purity="5.1351988315582275e-01" nType="1"/>
            <Node pos="r" depth="3" NCoef="0" IVar="-1" Cut="0.0000000000000000e+00" cType="1" res="-9.9000000000000000e+01" rms="0.0000000000000000e+00" purity="3.4305000305175781e-01" nType="-1"/>
          </Node>
        </Node>
      </Node>
    </BinaryTree>
    <BinaryTree type="DecisionTree" boostWeight="6.1170679039445397e-02" itree="33">
      <Node pos="s" depth="0" NCoef="0" IVar="2" Cut="2.7586825191974640e-02" cType="1" res="-9.9000000000000000e+01" rms="0.0000000000000000e+00" purity="4.9396812915802002e-01" nType="0">
        <Node pos="l" depth="1" NCoef="0" IVar="1" Cut="1.0928648523986340e-02" cType="0" res="-9.9000000000000000e+01" rms="0.0000000000000000e+00" purity="5.0605726242065430e-01" nType="0">
          <Node pos="l" depth="2" NCoef="0" IVar="0" Cut="9.7418054938316345e-03" cType="1" res="-9.9000000000000000e+01" rms="0.0000000000000000e+00" purity="5.7014584541320801e-01" nType="0">
            <Node pos="l" depth="3" NCoef="0" IVar="-1" Cut="0.0000000000000000e+00" cType="1" res="-9.9000000000000000e+01" rms="0.0000000000000000e+00" purity="6.4409804344177246e-01" nType="1"/>
            <Node pos="r" depth="3" NCoef="0" IVar="-1" Cut="0.0000000000000000e+00" cType="1" res="-9.9000000000000000e+01" rms="0.0000000000000000e+00" purity="4.9313154816627502e-01" nType="-1"/>
          </Node>
          <Node pos="r" depth="2" NCoef="0" IVar="5" Cut="1.1280759572982788e+00" cType="0" res="-9.9000000000000000e+01" rms="0.0000000000000000e+00" purity="4.9629196524620056e-01" nType="0">
            <Node pos="l" depth="3" NCoef="0" IVar="-1" Cut="0.0000000000000000e+00" cType="1" res="-9.9000000000000000e+01" rms="0.0000000000000000e+00" purity="5.7947146892547607e-01" nType="1"/>
            <Node pos="r" depth="3" NCoef="0" IVar="-1" Cut="0.0000000000000000e+00" cType="1" res="-9.9000000000000000e+01" rms="0.0000000000000000e+00" purity="4.8837438225746155e-01" nType="-1"/>
          </Node>
        </Node>
        <Node pos="r" depth="1" NCoef="0" IVar="-1" Cut="3.9941702038049698e-02" cType="1" res="-9.9000000000000000e+01" rms="0.0000000000000000e+00" purity="4.5109120011329651e-01" nType="-1"/>
      </Node>
    </BinaryTree>
    <BinaryTree type="DecisionTree" boostWeight="5.9483752211259948e-02" itree="34">
      <Node pos="s" depth="0" NCoef="0" IVar="2" Cut="2.6356723159551620e-02" cType="1" res="-9.9000000000000000e+01" rms="0.0000000000000000e+00" purity="5.0585925579071045e-01" nType="0">
        <Node pos="l" depth="1" NCoef="0" IVar="1" Cut="1.1625839397311211e-02" cType="0" res="-9.9000000000000000e+01" rms="0.0000000000000000e+00" purity="5.1802879571914673e-01" nType="0">
          <Node pos="l" depth="2" NCoef="0" IVar="-1" Cut="9.7064804285764694e-03" cType="1" res="-9.9000000000000000e+01" rms="0.0000000000000000e+00" purity="6.0652685165405273e-01" nType="1"/>
          <Node pos="r" depth="2" NCoef="0" IVar="7" Cut="9.0679526329040527e-01" cType="0" res="-9.9000000000000000e+01" rms="0.0000000000000000e+00" purity="5.1029324531555176e-01" nType="0">
            <Node pos="l" depth="3" NCoef="0" IVar="-1" Cut="0.0000000000000000e+00" cType="1" res="-9.9000000000000000e+01" rms="0.0000000000000000e+00" purity="5.5798095464706421e-01" nType="1"/>
            <Node pos="r" depth="3" NCoef="0" IVar="-1" Cut="0.0000000000000000e+00" cType="1" res="-9.9000000000000000e+01" rms="0.0000000000000000e+00" purity="4.9641057848930359e-01" nType="-1"/>
          </Node>
        </Node>
        <Node pos="r" depth="1" NCoef="0" IVar="0" Cut="9.7602503374218941e-03" cType="1" res="-9.9000000000000000e+01" rms="0.0000000000000000e+00" purity="4.6879932284355164e-01" nType="0">
          <Node pos="l" depth="2" NCoef="0" IVar="4" Cut="9.3810105323791504e-01" cType="1" res="-9.9000000000000000e+01" rms="0.0000000000000000e+00" purity="4.9602112174034119e-01" nType="0">
            <Node pos="l" depth="3" NCoef="0" IVar="-1" Cut="0.0000000000000000e+00" cType="1" res="-9.9000000000000000e+01" rms="0.0000000000000000e+00" purity="5.1389199495315552e-01" nType="1"/>
            <Node pos="r" depth="3" NCoef="0" IVar="-1" Cut="0.0000000000000000e+00" cType="1" res="-9.9000000000000000e+01" rms="0.0000000000000000e+00" purity="3.6701351404190063e-01" nType="-1"/>
          </Node>
          <Node pos="r" depth="2" NCoef="0" IVar="-1" Cut="1.3751300051808357e-02" cType="0" res="-9.9000000000000000e+01" rms="0.0000000000000000e+00" purity="3.8352572917938232e-01" nType="-1"/>
        </Node>
      </Node>
    </BinaryTree>
    <BinaryTree type="DecisionTree" boostWeight="9.1737558186473861e-02" itree="35">
      <Node pos="s" depth="0" NCoef="0" IVar="2" Cut="2.6356723159551620e-02" cType="1" res="-9.9000000000000000e+01" rms="0.0000000000000000e+00" purity="5.0940847396850586e-01" nType="0">
        <Node pos="l" depth="1" NCoef="0" IVar="7" Cut="8.7087553739547729e-01" cType="1" res="-9.9000000000000000e+01" rms="0.0000000000000000e+00" purity="5.2437359094619751e-01" nType="0">
          <Node pos="l" depth="2" NCoef="0" IVar="2" Cut="2.0592855289578438e-02" cType="1" res="-9.9000000000000000e+01" rms="0.0000000000000000e+00" purity="5.5884385108947754e-01" nType="0">
            <Node pos="l" depth="3" NCoef="0" IVar="-1" Cut="0.0000000000000000e+00" cType="1" res="-9.9000000000000000e+01" rms="0.0000000000000000e+00" purity="5.9548288583755493e-01" nType="1"/>
            <Node pos="r" depth="3" NCoef="0" IVar="-1" Cut="0.0000000000000000e+00" cType="1" res="-9.9000000000000000e+01" rms="0.0000000000000000e+00" purity="4.7865870594978333e-01" nType="-1"/>
          </Node>
          <Node pos="r" depth="2" NCoef="0" IVar="7" Cut="8.8632762432098389e-01" cType="0" res="-9.9000000000000000e+01" rms="0.0000000000000000e+00" purity="5.0489789247512817e-01" nType="0">
            <Node pos="l" depth="3" NCoef="0" IVar="-1" Cut="0.0000000000000000e+00" cType="1" res="-9.9000000000000000e+01" rms="0.0000000000000000e+00" purity="5.2470588684082031e-01" nType="1"/>
            <Node pos="r" depth="3" NCoef="0" IVar="-1" Cut="0.0000000000000000e+00" cType="1" res="-9.9000000000000000e+01" rms="0.0000000000000000e+00" purity="4.3063643574714661e-01" nType="-1"/>
          </Node>
        </Node>
        <Node pos="r" depth="1" NCoef="0" IVar="8" Cut="3.9941702038049698e-02" cType="1" res="-9.9000000000000000e+01" rms="0.0000000000000000e+00" purity="4.6376278996467590e-01" nType="0">
          <Node pos="l" depth="2" NCoef="0" IVar="7" Cut="9.0641343593597412e-01" cType="1" res="-9.9000000000000000e+01" rms="0.0000000000000000e+00" purity="4.8793298006057739e-01" nType="0">
            <Node pos="l" depth="3" NCoef="0" IVar="-1" Cut="0.0000000000000000e+00" cType="1" res="-9.9000000000000000e+01" rms="0.0000000000000000e+00" purity="5.0024008750915527e-01" nType="1"/>
            <Node pos="r" depth="3" NCoef="0" IVar="-1" Cut="0.0000000000000000e+00" cType="1" res="-9.9000000000000000e+01" rms="0.0000000000000000e+00" purity="3.8337391614913940e-01" nType="-1"/>
          </Node>
          <Node pos="r" depth="2" NCoef="0" IVar="0" Cut="1.4858490787446499e-02" cType="0" res="-9.9000000000000000e+01" rms="0.0000000000000000e+00" purity="3.9669257402420044e-01" nType="0">
            <Node pos="l" depth="3" NCoef="0" IVar="-1" Cut="0.0000000000000000e+00" cType="1" res="-9.9000000000000000e+01" rms="0.0000000000000000e+00" purity="5.3043562173843384e-01" nType="1"/>
            <Node pos="r" depth="3" NCoef="0" IVar="-1" Cut="0.0000000000000000e+00" cType="1" res="-9.9000000000000000e+01" rms="0.0000000000000000e+00" purity="3.6995258927345276e-01" nType="-1"/>
          </Node>
        </Node>
      </Node>
    </BinaryTree>
    <BinaryTree type="DecisionTree" boostWeight="8.4947138943928427e-02" itree="36">
      <Node pos="s" depth="0" NCoef="0" IVar="2" Cut="2.6356723159551620e-02" cType="1" res="-9.9000000000000000e+01" rms="0.0000000000000000e+00" purity="4.9841105937957764e-01" nType="0">
        <Node pos="l" depth="1" NCoef="0" IVar="7" Cut="8.7121921777725220e-01" cType="1" res="-9.9000000000000000e+01" rms="0.0000000000000000e+00" purity="5.1286882162094116e-01" nType="0">
          <Node pos="l" depth="2" NCoef="0" IVar="-1" Cut="8.4366250038146973e-01" cType="0" res="-9.9000000000000000e+01" rms="0.0000000000000000e+00" purity="5.5063265562057495e-01" nType="1"/>
          <Node pos="r" depth="2" NCoef="0" IVar="0" Cut="9.9892280995845795e-03" cType="0" res="-9.9000000000000000e+01" rms="0.0000000000000000e+00" purity="4.9147918820381165e-01" nType="0">
            <Node pos="l" depth="3" NCoef="0" IVar="-1" Cut="0.0000000000000000e+00" cType="1" res="-9.9000000000000000e+01" rms="0.0000000000000000e+00" purity="6.3417047262191772e-01" nType="1"/>
            <Node pos="r" depth="3" NCoef="0" IVar="-1" Cut="0.0000000000000000e+00" cType="1" res="-9.9000000000000000e+01" rms="0.0000000000000000e+00" purity="4.8272308707237244e-01" nType="-1"/>
          </Node>
        </Node>
        <Node pos="r" depth="1" NCoef="0" IVar="7" Cut="8.6431634426116943e-01" cType="0" res="-9.9000000000000000e+01" rms="0.0000000000000000e+00" purity="4.5434781908988953e-01" nType="0">
          <Node pos="l" depth="2" NCoef="0" IVar="4" Cut="9.3796348571777344e-01" cType="1" res="-9.9000000000000000e+01" rms="0.0000000000000000e+00" purity="5.0437903404235840e-01" nType="0">
            <Node pos="l" depth="3" NCoef="0" IVar="-1" Cut="0.0000000000000000e+00" cType="1" res="-9.9000000000000000e+01" rms="0.0000000000000000e+00" purity="5.5150145292282104e-01" nType="1"/>
            <Node pos="r" depth="3" NCoef="0" IVar="-1" Cut="0.0000000000000000e+00" cType="1" res="-9.9000000000000000e+01" rms="0.0000000000000000e+00" purity="3.8633754849433899e-01" nType="-1"/>
          </Node>
          <Node pos="r" depth="2" NCoef="0" IVar="-1" Cut="8.8276229798793793e-03" cType="1" res="-9.9000000000000000e+01" rms="0.0000000000000000e+00" purity="4.3119072914123535e-01" nType="-1"/>
        </Node>
      </Node>
    </BinaryTree>
    <BinaryTree type="DecisionTree" boostWeight="5.7552900289077426e-02" itree="37">
      <Node pos="s" depth="0" NCoef="0" IVar="2" Cut="2.6356723159551620e-02" cType="1" res="-9.9000000000000000e+01" rms="0.0000000000000000e+00" purity="5.0454330444335938e-01" nType="0">
        <Node pos="l" depth="1" NCoef="0" IVar="3" Cut="2.5693707357277162e-05" cType="1" res="-9.9000000000000000e+01" rms="0.0000000000000000e+00" purity="5.1722627878189087e-01" nType="0">
          <Node pos="l" depth="2" NCoef="0" IVar="-1" Cut="1.1644187383353710e-02" cType="0" res="-9.9000000000000000e+01" rms="0.0000000000000000e+00" purity="5.2075326442718506e-01" nType="1"/>
          <Node pos="r" depth="2" NCoef="0" IVar="-1" Cut="0.0000000000000000e+00" cType="1" res="-9.9000000000000000e+01" rms="0.0000000000000000e+00" purity="3.8256269693374634e-01" nType="-1"/>
        </Node>
        <Node pos="r" depth="1" NCoef="0" IVar="1" Cut="1.0901949368417263e-02" cType="1" res="-9.9000000000000000e+01" rms="0.0000000000000000e+00" purity="4.6577259898185730e-01" nType="0">
          <Node pos="l" depth="2" NCoef="0" IVar="6" Cut="2.7860775756835938e+02" cType="1" res="-9.9000000000000000e+01" rms="0.0000000000000000e+00" purity="4.8692178726196289e-01" nType="0">
            <Node pos="l" depth="3" NCoef="0" IVar="-1" Cut="0.0000000000000000e+00" cType="1" res="-9.9000000000000000e+01" rms="0.0000000000000000e+00" purity="5.0707054138183594e-01" nType="1"/>
            <Node pos="r" depth="3" NCoef="0" IVar="-1" Cut="0.0000000000000000e+00" cType="1" res="-9.9000000000000000e+01" rms="0.0000000000000000e+00" purity="3.9876753091812134e-01" nType="-1"/>
          </Node>
          <Node pos="r" depth="2" NCoef="0" IVar="0" Cut="1.3755549676716328e-02" cType="0" res="-9.9000000000000000e+01" rms="0.0000000000000000e+00" purity="4.2478466033935547e-01" nType="0">
            <Node pos="l" depth="3" NCoef="0" IVar="-1" Cut="0.0000000000000000e+00" cType="1" res="-9.9000000000000000e+01" rms="0.0000000000000000e+00" purity="5.2367770671844482e-01" nType="1"/>
            <Node pos="r" depth="3" NCoef="0" IVar="-1" Cut="0.0000000000000000e+00" cType="1" res="-9.9000000000000000e+01" rms="0.0000000000000000e+00" purity="3.9416441321372986e-01" nType="-1"/>
          </Node>
        </Node>
      </Node>
    </BinaryTree>
    <BinaryTree type="DecisionTree" boostWeight="6.6412720860318533e-02" itree="38">
      <Node pos="s" depth="0" NCoef="0" IVar="7" Cut="8.3184033632278442e-01" cType="0" res="-9.9000000000000000e+01" rms="0.0000000000000000e+00" purity="4.9341458082199097e-01" nType="0">
        <Node pos="l" depth="1" NCoef="0" IVar="0" Cut="9.1691929847002029e-03" cType="0" res="-9.9000000000000000e+01" rms="0.0000000000000000e+00" purity="5.0496065616607666e-01" nType="0">
          <Node pos="l" depth="2" NCoef="0" IVar="-1" Cut="9.1636097431182861e-01" cType="1" res="-9.9000000000000000e+01" rms="0.0000000000000000e+00" purity="5.3135967254638672e-01" nType="1"/>
          <Node pos="r" depth="2" NCoef="0" IVar="4" Cut="9.5838570594787598e-01" cType="0" res="-9.9000000000000000e+01" rms="0.0000000000000000e+00" purity="4.8558217287063599e-01" nType="0">
            <Node pos="l" depth="3" NCoef="0" IVar="-1" Cut="0.0000000000000000e+00" cType="1" res="-9.9000000000000000e+01" rms="0.0000000000000000e+00" purity="7.0766735076904297e-01" nType="1"/>
            <Node pos="r" depth="3" NCoef="0" IVar="-1" Cut="0.0000000000000000e+00" cType="1" res="-9.9000000000000000e+01" rms="0.0000000000000000e+00" purity="4.7792920470237732e-01" nType="-1"/>
          </Node>
        </Node>
        <Node pos="r" depth="1" NCoef="0" IVar="3" Cut="1.1016847565770149e-05" cType="1" res="-9.9000000000000000e+01" rms="0.0000000000000000e+00" purity="4.6082666516304016e-01" nType="0">
          <Node pos="l" depth="2" NCoef="0" IVar="3" Cut="-1.5184072253759950e-05" cType="0" res="-9.9000000000000000e+01" rms="0.0000000000000000e+00" purity="4.7728344798088074e-01" nType="0">
            <Node pos="l" depth="3" NCoef="0" IVar="-1" Cut="0.0000000000000000e+00" cType="1" res="-9.9000000000000000e+01" rms="0.0000000000000000e+00" purity="5.0351440906524658e-01" nType="1"/>
            <Node pos="r" depth="3" NCoef="0" IVar="-1" Cut="0.0000000000000000e+00" cType="1" res="-9.9000000000000000e+01" rms="0.0000000000000000e+00" purity="4.0162298083305359e-01" nType="-1"/>
          </Node>
          <Node pos="r" depth="2" NCoef="0" IVar="-1" Cut="1.0992468334734440e-02" cType="0" res="-9.9000000000000000e+01" rms="0.0000000000000000e+00" purity="3.9950928092002869e-01" nType="-1"/>
        </Node>
      </Node>
    </BinaryTree>
    <BinaryTree type="DecisionTree" boostWeight="4.0158347753053519e-02" itree="39">
      <Node pos="s" depth="0" NCoef="0" IVar="7" Cut="8.3184033632278442e-01" cType="0" res="-9.9000000000000000e+01" rms="0.0000000000000000e+00" purity="4.9406820535659790e-01" nType="0">
        <Node pos="l" depth="1" NCoef="0" IVar="5" Cut="-1.2955175638198853e+00" cType="1" res="-9.9000000000000000e+01" rms="0.0000000000000000e+00" purity="5.0688183307647705e-01" nType="0">
          <Node pos="l" depth="2" NCoef="0" IVar="-1" Cut="2.4907998657226562e+02" cType="1" res="-9.9000000000000000e+01" rms="0.0000000000000000e+00" purity="6.1106050014495850e-01" nType="1"/>
          <Node pos="r" depth="2" NCoef="0" IVar="9" Cut="1.4406134605407715e+01" cType="0" res="-9.9000000000000000e+01" rms="0.0000000000000000e+00" purity="5.0241041183471680e-01" nType="0">
            <Node pos="l" depth="3" NCoef="0" IVar="-1" Cut="0.0000000000000000e+00" cType="1" res="-9.9000000000000000e+01" rms="0.0000000000000000e+00" purity="5.9350633621215820e-01" nType="1"/>
            <Node pos="r" depth="3" NCoef="0" IVar="-1" Cut="0.0000000000000000e+00" cType="1" res="-9.9000000000000000e+01" rms="0.0000000000000000e+00" purity="4.9703052639961243e-01" nType="-1"/>
          </Node>
        </Node>
        <Node pos="r" depth="1" NCoef="0" IVar="-1" Cut="9.1809749603271484e-01" cType="1" res="-9.9000000000000000e+01" rms="0.0000000000000000e+00" purity="4.5786961913108826e-01" nType="-1"/>
      </Node>
    </BinaryTree>
    <BinaryTree type="DecisionTree" boostWeight="4.6485056729913647e-02" itree="40">
      <Node pos="s" depth="0" NCoef="0" IVar="7" Cut="8.3184033632278442e-01" cType="0" res="-9.9000000000000000e+01" rms="0.0000000000000000e+00" purity="5.0270557403564453e-01" nType="0">
        <Node pos="l" depth="1" NCoef="0" IVar="7" Cut="8.7345135211944580e-01" cType="1" res="-9.9000000000000000e+01" rms="0.0000000000000000e+00" purity="5.1502776145935059e-01" nType="0">
          <Node pos="l" depth="2" NCoef="0" IVar="2" Cut="1.8591405823826790e-02" cType="1" res="-9.9000000000000000e+01" rms="0.0000000000000000e+00" purity="5.4872298240661621e-01" nType="0">
            <Node pos="l" depth="3" NCoef="0" IVar="-1" Cut="0.0000000000000000e+00" cType="1" res="-9.9000000000000000e+01" rms="0.0000000000000000e+00" purity="6.1241126060485840e-01" nType="1"/>
            <Node pos="r" depth="3" NCoef="0" IVar="-1" Cut="0.0000000000000000e+00" cType="1" res="-9.9000000000000000e+01" rms="0.0000000000000000e+00" purity="4.9564167857170105e-01" nType="-1"/>
          </Node>
          <Node pos="r" depth="2" NCoef="0" IVar="0" Cut="1.0192275047302246e-02" cType="0" res="-9.9000000000000000e+01" rms="0.0000000000000000e+00" purity="5.0247907638549805e-01" nType="0">
            <Node pos="l" depth="3" NCoef="0" IVar="-1" Cut="0.0000000000000000e+00" cType="1" res="-9.9000000000000000e+01" rms="0.0000000000000000e+00" purity="6.3394159078598022e-01" nType="1"/>
            <Node pos="r" depth="3" NCoef="0" IVar="-1" Cut="0.0000000000000000e+00" cType="1" res="-9.9000000000000000e+01" rms="0.0000000000000000e+00" purity="4.9732300639152527e-01" nType="-1"/>
          </Node>
        </Node>
        <Node pos="r" depth="1" NCoef="0" IVar="-1" Cut="9.1809749603271484e-01" cType="1" res="-9.9000000000000000e+01" rms="0.0000000000000000e+00" purity="4.6785348653793335e-01" nType="-1"/>
      </Node>
    </BinaryTree>
    <BinaryTree type="DecisionTree" boostWeight="6.0079937823311863e-02" itree="41">
      <Node pos="s" depth="0" NCoef="0" IVar="7" Cut="8.3184033632278442e-01" cType="0" res="-9.9000000000000000e+01" rms="0.0000000000000000e+00" purity="5.1174747943878174e-01" nType="0">
        <Node pos="l" depth="1" NCoef="0" IVar="5" Cut="9.5919001102447510e-01" cType="0" res="-9.9000000000000000e+01" rms="0.0000000000000000e+00" purity="5.2316296100616455e-01" nType="0">
          <Node pos="l" depth="2" NCoef="0" IVar="-1" Cut="2.2496972656250000e+02" cType="1" res="-9.9000000000000000e+01" rms="0.0000000000000000e+00" purity="5.6740772724151611e-01" nType="1"/>
          <Node pos="r" depth="2" NCoef="0" IVar="3" Cut="1.8488423165763379e-06" cType="1" res="-9.9000000000000000e+01" rms="0.0000000000000000e+00" purity="5.1469713449478149e-01" nType="0">
            <Node pos="l" depth="3" NCoef="0" IVar="-1" Cut="0.0000000000000000e+00" cType="1" res="-9.9000000000000000e+01" rms="0.0000000000000000e+00" purity="5.3382998704910278e-01" nType="1"/>
            <Node pos="r" depth="3" NCoef="0" IVar="-1" Cut="0.0000000000000000e+00" cType="1" res="-9.9000000000000000e+01" rms="0.0000000000000000e+00" purity="4.8501050472259521e-01" nType="-1"/>
          </Node>
        </Node>
        <Node pos="r" depth="1" NCoef="0" IVar="4" Cut="9.1809749603271484e-01" cType="1" res="-9.9000000000000000e+01" rms="0.0000000000000000e+00" purity="4.7944197058677673e-01" nType="0">
          <Node pos="l" depth="2" NCoef="0" IVar="2" Cut="4.9503143876791000e-02" cType="1" res="-9.9000000000000000e+01" rms="0.0000000000000000e+00" purity="4.9209216237068176e-01" nType="0">
            <Node pos="l" depth="3" NCoef="0" IVar="-1" Cut="0.0000000000000000e+00" cType="1" res="-9.9000000000000000e+01" rms="0.0000000000000000e+00" purity="5.0054466724395752e-01" nType="1"/>
            <Node pos="r" depth="3" NCoef="0" IVar="-1" Cut="0.0000000000000000e+00" cType="1" res="-9.9000000000000000e+01" rms="0.0000000000000000e+00" purity="3.4899374842643738e-01" nType="-1"/>
          </Node>
          <Node pos="r" depth="2" NCoef="0" IVar="-1" Cut="0.0000000000000000e+00" cType="1" res="-9.9000000000000000e+01" rms="0.0000000000000000e+00" purity="3.9380764961242676e-01" nType="-1"/>
        </Node>
      </Node>
    </BinaryTree>
    <BinaryTree type="DecisionTree" boostWeight="5.0450624014078280e-02" itree="42">
      <Node pos="s" depth="0" NCoef="0" IVar="7" Cut="8.3184033632278442e-01" cType="0" res="-9.9000000000000000e+01" rms="0.0000000000000000e+00" purity="5.0543177127838135e-01" nType="0">
        <Node pos="l" depth="1" NCoef="0" IVar="5" Cut="-1.2955175638198853e+00" cType="1" res="-9.9000000000000000e+01" rms="0.0000000000000000e+00" purity="5.1806247234344482e-01" nType="0">
          <Node pos="l" depth="2" NCoef="0" IVar="-1" Cut="2.4907998657226562e+02" cType="1" res="-9.9000000000000000e+01" rms="0.0000000000000000e+00" purity="6.1054521799087524e-01" nType="1"/>
          <Node pos="r" depth="2" NCoef="0" IVar="4" Cut="9.6215212345123291e-01" cType="1" res="-9.9000000000000000e+01" rms="0.0000000000000000e+00" purity="5.1409041881561279e-01" nType="0">
            <Node pos="l" depth="3" NCoef="0" IVar="-1" Cut="0.0000000000000000e+00" cType="1" res="-9.9000000000000000e+01" rms="0.0000000000000000e+00" purity="5.1731926202774048e-01" nType="1"/>
            <Node pos="r" depth="3" NCoef="0" IVar="-1" Cut="0.0000000000000000e+00" cType="1" res="-9.9000000000000000e+01" rms="0.0000000000000000e+00" purity="3.9087116718292236e-01" nType="-1"/>
          </Node>
        </Node>
        <Node pos="r" depth="1" NCoef="0" IVar="-1" Cut="4.9437724053859711e-02" cType="1" res="-9.9000000000000000e+01" rms="0.0000000000000000e+00" purity="4.6971207857131958e-01" nType="-1"/>
      </Node>
    </BinaryTree>
    <BinaryTree type="DecisionTree" boostWeight="3.8007337472328477e-02" itree="43">
      <Node pos="s" depth="0" NCoef="0" IVar="6" Cut="2.0896916198730469e+02" cType="1" res="-9.9000000000000000e+01" rms="0.0000000000000000e+00" purity="4.9986606836318970e-01" nType="0">
        <Node pos="l" depth="1" NCoef="0" IVar="5" Cut="1.0428996086120605e+00" cType="0" res="-9.9000000000000000e+01" rms="0.0000000000000000e+00" purity="5.4062253236770630e-01" nType="0">
          <Node pos="l" depth="2" NCoef="0" IVar="-1" Cut="0.0000000000000000e+00" cType="1" res="-9.9000000000000000e+01" rms="0.0000000000000000e+00" purity="6.3704359531402588e-01" nType="1"/>
          <Node pos="r" depth="2" NCoef="0" IVar="5" Cut="-8.6747312545776367e-01" cType="1" res="-9.9000000000000000e+01" rms="0.0000000000000000e+00" purity="5.2529478073120117e-01" nType="0">
            <Node pos="l" depth="3" NCoef="0" IVar="-1" Cut="0.0000000000000000e+00" cType="1" res="-9.9000000000000000e+01" rms="0.0000000000000000e+00" purity="6.1438584327697754e-01" nType="1"/>
            <Node pos="r" depth="3" NCoef="0" IVar="-1" Cut="0.0000000000000000e+00" cType="1" res="-9.9000000000000000e+01" rms="0.0000000000000000e+00" purity="4.9875351786613464e-01" nType="-1"/>
          </Node>
        </Node>
        <Node pos="r" depth="1" NCoef="0" IVar="2" Cut="4.6038366854190826e-02" cType="1" res="-9.9000000000000000e+01" rms="0.0000000000000000e+00" purity="4.9263006448745728e-01" nType="0">
          <Node pos="l" depth="2" NCoef="0" IVar="7" Cut="9.1631245613098145e-01" cType="0" res="-9.9000000000000000e+01" rms="0.0000000000000000e+00" purity="4.9516642093658447e-01" nType="0">
            <Node pos="l" depth="3" NCoef="0" IVar="-1" Cut="0.0000000000000000e+00" cType="1" res="-9.9000000000000000e+01" rms="0.0000000000000000e+00" purity="5.5137050151824951e-01" nType="1"/>
            <Node pos="r" depth="3" NCoef="0" IVar="-1" Cut="0.0000000000000000e+00" cType="1" res="-9.9000000000000000e+01" rms="0.0000000000000000e+00" purity="4.9063280224800110e-01" nType="-1"/>
          </Node>
          <Node pos="r" depth="2" NCoef="0" IVar="-1" Cut="0.0000000000000000e+00" cType="1" res="-9.9000000000000000e+01" rms="0.0000000000000000e+00" purity="3.8616338372230530e-01" nType="-1"/>
        </Node>
      </Node>
    </BinaryTree>
    <BinaryTree type="DecisionTree" boostWeight="5.1479519364901478e-02" itree="44">
      <Node pos="s" depth="0" NCoef="0" IVar="4" Cut="9.5797938108444214e-01" cType="0" res="-9.9000000000000000e+01" rms="0.0000000000000000e+00" purity="5.0723516941070557e-01" nType="0">
        <Node pos="l" depth="1" NCoef="0" IVar="0" Cut="9.5274187624454498e-03" cType="1" res="-9.9000000000000000e+01" rms="0.0000000000000000e+00" purity="5.7715964317321777e-01" nType="0">
          <Node pos="l" depth="2" NCoef="0" IVar="-1" Cut="9.6223777532577515e-01" cType="1" res="-9.9000000000000000e+01" rms="0.0000000000000000e+00" purity="6.9062030315399170e-01" nType="1"/>
          <Node pos="r" depth="2" NCoef="0" IVar="-1" Cut="0.0000000000000000e+00" cType="1" res="-9.9000000000000000e+01" rms="0.0000000000000000e+00" purity="3.5555031895637512e-01" nType="-1"/>
        </Node>
        <Node pos="r" depth="1" NCoef="0" IVar="3" Cut="-1.5514395272475667e-05" cType="0" res="-9.9000000000000000e+01" rms="0.0000000000000000e+00" purity="5.0329512357711792e-01" nType="0">
          <Node pos="l" depth="2" NCoef="0" IVar="8" Cut="2.9368898272514343e-01" cType="1" res="-9.9000000000000000e+01" rms="0.0000000000000000e+00" purity="5.0865364074707031e-01" nType="0">
            <Node pos="l" depth="3" NCoef="0" IVar="-1" Cut="0.0000000000000000e+00" cType="1" res="-9.9000000000000000e+01" rms="0.0000000000000000e+00" purity="5.1131272315979004e-01" nType="1"/>
            <Node pos="r" depth="3" NCoef="0" IVar="-1" Cut="0.0000000000000000e+00" cType="1" res="-9.9000000000000000e+01" rms="0.0000000000000000e+00" purity="3.9577165246009827e-01" nType="-1"/>
          </Node>
          <Node pos="r" depth="2" NCoef="0" IVar="5" Cut="1.8547643721103668e-01" cType="1" res="-9.9000000000000000e+01" rms="0.0000000000000000e+00" purity="4.5735827088356018e-01" nType="0">
            <Node pos="l" depth="3" NCoef="0" IVar="-1" Cut="0.0000000000000000e+00" cType="1" res="-9.9000000000000000e+01" rms="0.0000000000000000e+00" purity="5.0620847940444946e-01" nType="1"/>
            <Node pos="r" depth="3" NCoef="0" IVar="-1" Cut="0.0000000000000000e+00" cType="1" res="-9.9000000000000000e+01" rms="0.0000000000000000e+00" purity="3.7727203965187073e-01" nType="-1"/>
          </Node>
        </Node>
      </Node>
    </BinaryTree>
    <BinaryTree type="DecisionTree" boostWeight="5.5172781256668087e-02" itree="45">
      <Node pos="s" depth="0" NCoef="0" IVar="4" Cut="9.5797938108444214e-01" cType="0" res="-9.9000000000000000e+01" rms="0.0000000000000000e+00" purity="4.9629431962966919e-01" nType="0">
        <Node pos="l" depth="1" NCoef="0" IVar="0" Cut="9.5274187624454498e-03" cType="1" res="-9.9000000000000000e+01" rms="0.0000000000000000e+00" purity="5.7367014884948730e-01" nType="0">
          <Node pos="l" depth="2" NCoef="0" IVar="-1" Cut="9.6223777532577515e-01" cType="1" res="-9.9000000000000000e+01" rms="0.0000000000000000e+00" purity="6.7951440811157227e-01" nType="1"/>
          <Node pos="r" depth="2" NCoef="0" IVar="-1" Cut="0.0000000000000000e+00" cType="1" res="-9.9000000000000000e+01" rms="0.0000000000000000e+00" purity="3.6743178963661194e-01" nType="-1"/>
        </Node>
        <Node pos="r" depth="1" NCoef="0" IVar="6" Cut="2.0896916198730469e+02" cType="1" res="-9.9000000000000000e+01" rms="0.0000000000000000e+00" purity="4.9196985363960266e-01" nType="0">
          <Node pos="l" depth="2" NCoef="0" IVar="4" Cut="9.5148241519927979e-01" cType="1" res="-9.9000000000000000e+01" rms="0.0000000000000000e+00" purity="5.2698022127151489e-01" nType="0">
            <Node pos="l" depth="3" NCoef="0" IVar="-1" Cut="0.0000000000000000e+00" cType="1" res="-9.9000000000000000e+01" rms="0.0000000000000000e+00" purity="5.4698014259338379e-01" nType="1"/>
            <Node pos="r" depth="3" NCoef="0" IVar="-1" Cut="0.0000000000000000e+00" cType="1" res="-9.9000000000000000e+01" rms="0.0000000000000000e+00" purity="4.1755586862564087e-01" nType="-1"/>
          </Node>
          <Node pos="r" depth="2" NCoef="0" IVar="-1" Cut="4.5970965176820755e-02" cType="1" res="-9.9000000000000000e+01" rms="0.0000000000000000e+00" purity="4.8578584194183350e-01" nType="-1"/>
        </Node>
      </Node>
    </BinaryTree>
    <BinaryTree type="DecisionTree" boostWeight="3.2109300104102990e-02" itree="46">
      <Node pos="s" depth="0" NCoef="0" IVar="4" Cut="9.5797938108444214e-01" cType="0" res="-9.9000000000000000e+01" rms="0.0000000000000000e+00" purity="5.0581306219100952e-01" nType="0">
        <Node pos="l" depth="1" NCoef="0" IVar="0" Cut="9.5274187624454498e-03" cType="1" res="-9.9000000000000000e+01" rms="0.0000000000000000e+00" purity="5.6986457109451294e-01" nType="0">
          <Node pos="l" depth="2" NCoef="0" IVar="-1" Cut="9.6223777532577515e-01" cType="1" res="-9.9000000000000000e+01" rms="0.0000000000000000e+00" purity="6.6738212108612061e-01" nType="1"/>
          <Node pos="r" depth="2" NCoef="0" IVar="-1" Cut="0.0000000000000000e+00" cType="1" res="-9.9000000000000000e+01" rms="0.0000000000000000e+00" purity="3.8034653663635254e-01" nType="-1"/>
        </Node>
        <Node pos="r" depth="1" NCoef="0" IVar="9" Cut="1.3360269546508789e+01" cType="0" res="-9.9000000000000000e+01" rms="0.0000000000000000e+00" purity="5.0226169824600220e-01" nType="0">
          <Node pos="l" depth="2" NCoef="0" IVar="-1" Cut="-3.6736181378364563e-01" cType="1" res="-9.9000000000000000e+01" rms="0.0000000000000000e+00" purity="5.4639512300491333e-01" nType="1"/>
          <Node pos="r" depth="2" NCoef="0" IVar="4" Cut="9.5600926876068115e-01" cType="1" res="-9.9000000000000000e+01" rms="0.0000000000000000e+00" purity="4.9756306409835815e-01" nType="0">
            <Node pos="l" depth="3" NCoef="0" IVar="-1" Cut="0.0000000000000000e+00" cType="1" res="-9.9000000000000000e+01" rms="0.0000000000000000e+00" purity="5.0109738111495972e-01" nType="1"/>
            <Node pos="r" depth="3" NCoef="0" IVar="-1" Cut="0.0000000000000000e+00" cType="1" res="-9.9000000000000000e+01" rms="0.0000000000000000e+00" purity="4.2548960447311401e-01" nType="-1"/>
          </Node>
        </Node>
      </Node>
    </BinaryTree>
    <BinaryTree type="DecisionTree" boostWeight="3.8709092264703079e-02" itree="47">
      <Node pos="s" depth="0" NCoef="0" IVar="4" Cut="9.5797938108444214e-01" cType="0" res="-9.9000000000000000e+01" rms="0.0000000000000000e+00" purity="4.9871486425399780e-01" nType="0">
        <Node pos="l" depth="1" NCoef="0" IVar="0" Cut="9.5274187624454498e-03" cType="1" res="-9.9000000000000000e+01" rms="0.0000000000000000e+00" purity="5.6762009859085083e-01" nType="0">
          <Node pos="l" depth="2" NCoef="0" IVar="-1" Cut="9.6223777532577515e-01" cType="1" res="-9.9000000000000000e+01" rms="0.0000000000000000e+00" purity="6.6021651029586792e-01" nType="1"/>
          <Node pos="r" depth="2" NCoef="0" IVar="-1" Cut="0.0000000000000000e+00" cType="1" res="-9.9000000000000000e+01" rms="0.0000000000000000e+00" purity="3.8794267177581787e-01" nType="-1"/>
        </Node>
        <Node pos="r" depth="1" NCoef="0" IVar="9" Cut="1.3360269546508789e+01" cType="0" res="-9.9000000000000000e+01" rms="0.0000000000000000e+00" purity="4.9491181969642639e-01" nType="0">
          <Node pos="l" depth="2" NCoef="0" IVar="-1" Cut="-3.6736181378364563e-01" cType="1" res="-9.9000000000000000e+01" rms="0.0000000000000000e+00" purity="5.3842574357986450e-01" nType="1"/>
          <Node pos="r" depth="2" NCoef="0" IVar="-1" Cut="-1.5514395272475667e-05" cType="0" res="-9.9000000000000000e+01" rms="0.0000000000000000e+00" purity="4.9028542637825012e-01" nType="-1"/>
        </Node>
      </Node>
    </BinaryTree>
    <BinaryTree type="DecisionTree" boostWeight="3.5943531538173694e-02" itree="48">
      <Node pos="s" depth="0" NCoef="0" IVar="2" Cut="2.6356723159551620e-02" cType="1" res="-9.9000000000000000e+01" rms="0.0000000000000000e+00" purity="5.0596487522125244e-01" nType="0">
        <Node pos="l" depth="1" NCoef="0" IVar="-1" Cut="1.1625839397311211e-02" cType="0" res="-9.9000000000000000e+01" rms="0.0000000000000000e+00" purity="5.1439076662063599e-01" nType="1"/>
        <Node pos="r" depth="1" NCoef="0" IVar="0" Cut="1.4850138686597347e-02" cType="0" res="-9.9000000000000000e+01" rms="0.0000000000000000e+00" purity="4.8017355799674988e-01" nType="0">
          <Node pos="l" depth="2" NCoef="0" IVar="-1" Cut="0.0000000000000000e+00" cType="1" res="-9.9000000000000000e+01" rms="0.0000000000000000e+00" purity="5.8185189962387085e-01" nType="1"/>
          <Node pos="r" depth="2" NCoef="0" IVar="-1" Cut="9.5125697553157806e-03" cType="1" res="-9.9000000000000000e+01" rms="0.0000000000000000e+00" purity="4.7420594096183777e-01" nType="-1"/>
        </Node>
      </Node>
    </BinaryTree>
    <BinaryTree type="DecisionTree" boostWeight="4.3450373077127152e-02" itree="49">
      <Node pos="s" depth="0" NCoef="0" IVar="5" Cut="1.1194157600402832e+00" cType="0" res="-9.9000000000000000e+01" rms="0.0000000000000000e+00" purity="5.0116044282913208e-01" nType="0">
        <Node pos="l" depth="1" NCoef="0" IVar="2" Cut="1.4694897457957268e-02" cType="1" res="-9.9000000000000000e+01" rms="0.0000000000000000e+00" purity="5.3974485397338867e-01" nType="0">
          <Node pos="l" depth="2" NCoef="0" IVar="-1" Cut="0.0000000000000000e+00" cType="1" res="-9.9000000000000000e+01" rms="0.0000000000000000e+00" purity="7.1210974454879761e-01" nType="1"/>
          <Node pos="r" depth="2" NCoef="0" IVar="0" Cut="8.6243050172924995e-03" cType="1" res="-9.9000000000000000e+01" rms="0.0000000000000000e+00" purity="5.2237766981124878e-01" nType="0">
            <Node pos="l" depth="3" NCoef="0" IVar="-1" Cut="0.0000000000000000e+00" cType="1" res="-9.9000000000000000e+01" rms="0.0000000000000000e+00" purity="6.0166168212890625e-01" nType="1"/>
            <Node pos="r" depth="3" NCoef="0" IVar="-1" Cut="0.0000000000000000e+00" cType="1" res="-9.9000000000000000e+01" rms="0.0000000000000000e+00" purity="4.8239597678184509e-01" nType="-1"/>
          </Node>
        </Node>
        <Node pos="r" depth="1" NCoef="0" IVar="5" Cut="-9.0610730648040771e-01" cType="1" res="-9.9000000000000000e+01" rms="0.0000000000000000e+00" purity="4.9564877152442932e-01" nType="0">
          <Node pos="l" depth="2" NCoef="0" IVar="-1" Cut="1.2043530121445656e-02" cType="1" res="-9.9000000000000000e+01" rms="0.0000000000000000e+00" purity="5.2656012773513794e-01" nType="1"/>
          <Node pos="r" depth="2" NCoef="0" IVar="-1" Cut="9.6200925111770630e-01" cType="1" res="-9.9000000000000000e+01" rms="0.0000000000000000e+00" purity="4.8687222599983215e-01" nType="-1"/>
        </Node>
      </Node>
    </BinaryTree>
    <BinaryTree type="DecisionTree" boostWeight="3.2541398830857424e-02" itree="50">
      <Node pos="s" depth="0" NCoef="0" IVar="4" Cut="9.6206033229827881e-01" cType="1" res="-9.9000000000000000e+01" rms="0.0000000000000000e+00" purity="5.0674915313720703e-01" nType="0">
        <Node pos="l" depth="1" NCoef="0" IVar="4" Cut="9.5809972286224365e-01" cType="0" res="-9.9000000000000000e+01" rms="0.0000000000000000e+00" purity="5.0871962308883667e-01" nType="0">
          <Node pos="l" depth="2" NCoef="0" IVar="-1" Cut="9.5235826447606087e-03" cType="1" res="-9.9000000000000000e+01" rms="0.0000000000000000e+00" purity="6.6418355703353882e-01" nType="1"/>
          <Node pos="r" depth="2" NCoef="0" IVar="6" Cut="3.9373153686523438e+02" cType="1" res="-9.9000000000000000e+01" rms="0.0000000000000000e+00" purity="5.0365936756134033e-01" nType="0">
            <Node pos="l" depth="3" NCoef="0" IVar="-1" Cut="0.0000000000000000e+00" cType="1" res="-9.9000000000000000e+01" rms="0.0000000000000000e+00" purity="5.0725662708282471e-01" nType="1"/>
            <Node pos="r" depth="3" NCoef="0" IVar="-1" Cut="0.0000000000000000e+00" cType="1" res="-9.9000000000000000e+01" rms="0.0000000000000000e+00" purity="4.5370456576347351e-01" nType="-1"/>
          </Node>
        </Node>
        <Node pos="r" depth="1" NCoef="0" IVar="-1" Cut="0.0000000000000000e+00" cType="1" res="-9.9000000000000000e+01" rms="0.0000000000000000e+00" purity="4.0565931797027588e-01" nType="-1"/>
      </Node>
    </BinaryTree>
    <BinaryTree type="DecisionTree" boostWeight="4.1072920112858409e-02" itree="51">
      <Node pos="s" depth="0" NCoef="0" IVar="4" Cut="9.5797938108444214e-01" cType="0" res="-9.9000000000000000e+01" rms="0.0000000000000000e+00" purity="4.9996373057365417e-01" nType="0">
        <Node pos="l" depth="1" NCoef="0" IVar="0" Cut="9.5274187624454498e-03" cType="1" res="-9.9000000000000000e+01" rms="0.0000000000000000e+00" purity="5.6191760301589966e-01" nType="0">
